digraph Tree {
node [shape=box] ;
0 [label="X[2] <= 0.053\nmse = 0.082\nsamples = 714\nvalue = 0.503"] ;
1 [label="X[5] <= 0.065\nmse = 0.055\nsamples = 479\nvalue = 0.626"] ;
0 -> 1 [labeldistance=2.5, labelangle=45, headlabel="True"] ;
2 [label="X[3] <= 0.328\nmse = 0.046\nsamples = 383\nvalue = 0.665"] ;
1 -> 2 ;
3 [label="X[5] <= 0.027\nmse = 0.045\nsamples = 310\nvalue = 0.64"] ;
2 -> 3 ;
4 [label="X[1] <= 0.071\nmse = 0.042\nsamples = 136\nvalue = 0.714"] ;
3 -> 4 ;
5 [label="X[0] <= 0.09\nmse = 0.041\nsamples = 116\nvalue = 0.736"] ;
4 -> 5 ;
6 [label="X[4] <= 0.067\nmse = 0.054\nsamples = 28\nvalue = 0.646"] ;
5 -> 6 ;
7 [label="X[3] <= 0.311\nmse = 0.009\nsamples = 8\nvalue = 0.87"] ;
6 -> 7 ;
8 [label="X[2] <= 0.039\nmse = 0.004\nsamples = 5\nvalue = 0.82"] ;
7 -> 8 ;
9 [label="X[1] <= 0.065\nmse = 0.001\nsamples = 2\nvalue = 0.724"] ;
8 -> 9 ;
10 [label="mse = 0.0\nsamples = 1\nvalue = 0.761"] ;
9 -> 10 ;
11 [label="mse = 0.0\nsamples = 1\nvalue = 0.687"] ;
9 -> 11 ;
12 [label="X[1] <= 0.065\nmse = 0.001\nsamples = 3\nvalue = 0.859"] ;
8 -> 12 ;
13 [label="mse = 0.0\nsamples = 1\nvalue = 0.813"] ;
12 -> 13 ;
14 [label="X[1] <= 0.068\nmse = 0.0\nsamples = 2\nvalue = 0.87"] ;
12 -> 14 ;
15 [label="mse = 0.0\nsamples = 1\nvalue = 0.867"] ;
14 -> 15 ;
16 [label="mse = -0.0\nsamples = 1\nvalue = 0.874"] ;
14 -> 16 ;
17 [label="X[3] <= 0.32\nmse = 0.0\nsamples = 3\nvalue = 0.984"] ;
7 -> 17 ;
18 [label="mse = 0.0\nsamples = 1\nvalue = 0.972"] ;
17 -> 18 ;
19 [label="X[2] <= 0.038\nmse = 0.0\nsamples = 2\nvalue = 0.99"] ;
17 -> 19 ;
20 [label="mse = 0.0\nsamples = 1\nvalue = 0.986"] ;
19 -> 20 ;
21 [label="mse = 0.0\nsamples = 1\nvalue = 0.995"] ;
19 -> 21 ;
22 [label="X[3] <= 0.272\nmse = 0.048\nsamples = 20\nvalue = 0.578"] ;
6 -> 22 ;
23 [label="mse = 0.0\nsamples = 1\nvalue = 0.971"] ;
22 -> 23 ;
24 [label="X[4] <= 0.078\nmse = 0.041\nsamples = 19\nvalue = 0.553"] ;
22 -> 24 ;
25 [label="X[3] <= 0.294\nmse = 0.031\nsamples = 5\nvalue = 0.429"] ;
24 -> 25 ;
26 [label="X[1] <= 0.064\nmse = 0.019\nsamples = 4\nvalue = 0.496"] ;
25 -> 26 ;
27 [label="mse = 0.0\nsamples = 1\nvalue = 0.279"] ;
26 -> 27 ;
28 [label="X[3] <= 0.286\nmse = 0.0\nsamples = 3\nvalue = 0.583"] ;
26 -> 28 ;
29 [label="X[4] <= 0.072\nmse = 0.0\nsamples = 2\nvalue = 0.59"] ;
28 -> 29 ;
30 [label="mse = 0.0\nsamples = 1\nvalue = 0.596"] ;
29 -> 30 ;
31 [label="mse = -0.0\nsamples = 1\nvalue = 0.585"] ;
29 -> 31 ;
32 [label="mse = -0.0\nsamples = 1\nvalue = 0.551"] ;
28 -> 32 ;
33 [label="mse = -0.0\nsamples = 1\nvalue = 0.193"] ;
25 -> 33 ;
34 [label="X[5] <= 0.022\nmse = 0.036\nsamples = 14\nvalue = 0.604"] ;
24 -> 34 ;
35 [label="mse = 0.0\nsamples = 1\nvalue = 0.972"] ;
34 -> 35 ;
36 [label="X[3] <= 0.31\nmse = 0.031\nsamples = 13\nvalue = 0.586"] ;
34 -> 36 ;
37 [label="X[5] <= 0.024\nmse = 0.006\nsamples = 5\nvalue = 0.689"] ;
36 -> 37 ;
38 [label="mse = 0.0\nsamples = 1\nvalue = 0.53"] ;
37 -> 38 ;
39 [label="X[4] <= 0.08\nmse = 0.003\nsamples = 4\nvalue = 0.707"] ;
37 -> 39 ;
40 [label="mse = 0.0\nsamples = 1\nvalue = 0.86"] ;
39 -> 40 ;
41 [label="X[4] <= 0.082\nmse = 0.0\nsamples = 3\nvalue = 0.688"] ;
39 -> 41 ;
42 [label="X[2] <= 0.042\nmse = 0.0\nsamples = 2\nvalue = 0.675"] ;
41 -> 42 ;
43 [label="mse = 0.0\nsamples = 1\nvalue = 0.676"] ;
42 -> 43 ;
44 [label="mse = -0.0\nsamples = 1\nvalue = 0.672"] ;
42 -> 44 ;
45 [label="mse = 0.0\nsamples = 1\nvalue = 0.7"] ;
41 -> 45 ;
46 [label="X[4] <= 0.081\nmse = 0.036\nsamples = 8\nvalue = 0.493"] ;
36 -> 46 ;
47 [label="X[2] <= 0.042\nmse = 0.005\nsamples = 3\nvalue = 0.299"] ;
46 -> 47 ;
48 [label="X[3] <= 0.315\nmse = 0.0\nsamples = 2\nvalue = 0.251"] ;
47 -> 48 ;
49 [label="mse = 0.0\nsamples = 1\nvalue = 0.265"] ;
48 -> 49 ;
50 [label="mse = 0.0\nsamples = 1\nvalue = 0.237"] ;
48 -> 50 ;
51 [label="mse = 0.0\nsamples = 1\nvalue = 0.394"] ;
47 -> 51 ;
52 [label="X[1] <= 0.069\nmse = 0.028\nsamples = 5\nvalue = 0.565"] ;
46 -> 52 ;
53 [label="X[3] <= 0.324\nmse = 0.022\nsamples = 3\nvalue = 0.474"] ;
52 -> 53 ;
54 [label="X[3] <= 0.323\nmse = 0.002\nsamples = 2\nvalue = 0.589"] ;
53 -> 54 ;
55 [label="mse = 0.0\nsamples = 1\nvalue = 0.554"] ;
54 -> 55 ;
56 [label="mse = -0.0\nsamples = 1\nvalue = 0.66"] ;
54 -> 56 ;
57 [label="mse = -0.0\nsamples = 1\nvalue = 0.3"] ;
53 -> 57 ;
58 [label="X[4] <= 0.084\nmse = 0.001\nsamples = 2\nvalue = 0.718"] ;
52 -> 58 ;
59 [label="mse = 0.0\nsamples = 1\nvalue = 0.693"] ;
58 -> 59 ;
60 [label="mse = 0.0\nsamples = 1\nvalue = 0.768"] ;
58 -> 60 ;
61 [label="X[4] <= 0.08\nmse = 0.034\nsamples = 88\nvalue = 0.763"] ;
5 -> 61 ;
62 [label="X[5] <= 0.026\nmse = 0.033\nsamples = 74\nvalue = 0.739"] ;
61 -> 62 ;
63 [label="X[3] <= 0.252\nmse = 0.028\nsamples = 68\nvalue = 0.763"] ;
62 -> 63 ;
64 [label="mse = 0.0\nsamples = 1\nvalue = 0.422"] ;
63 -> 64 ;
65 [label="X[2] <= 0.044\nmse = 0.026\nsamples = 67\nvalue = 0.77"] ;
63 -> 65 ;
66 [label="X[3] <= 0.306\nmse = 0.03\nsamples = 43\nvalue = 0.743"] ;
65 -> 66 ;
67 [label="X[3] <= 0.295\nmse = 0.035\nsamples = 32\nvalue = 0.705"] ;
66 -> 67 ;
68 [label="X[5] <= 0.025\nmse = 0.021\nsamples = 22\nvalue = 0.772"] ;
67 -> 68 ;
69 [label="X[3] <= 0.293\nmse = 0.013\nsamples = 21\nvalue = 0.788"] ;
68 -> 69 ;
70 [label="X[2] <= 0.043\nmse = 0.012\nsamples = 19\nvalue = 0.774"] ;
69 -> 70 ;
71 [label="X[0] <= 0.091\nmse = 0.017\nsamples = 10\nvalue = 0.732"] ;
70 -> 71 ;
72 [label="X[4] <= 0.078\nmse = 0.006\nsamples = 6\nvalue = 0.659"] ;
71 -> 72 ;
73 [label="X[5] <= 0.019\nmse = 0.004\nsamples = 5\nvalue = 0.62"] ;
72 -> 73 ;
74 [label="X[5] <= 0.018\nmse = 0.001\nsamples = 2\nvalue = 0.69"] ;
73 -> 74 ;
75 [label="mse = 0.0\nsamples = 1\nvalue = 0.663"] ;
74 -> 75 ;
76 [label="mse = 0.0\nsamples = 1\nvalue = 0.717"] ;
74 -> 76 ;
77 [label="X[3] <= 0.284\nmse = 0.0\nsamples = 3\nvalue = 0.573"] ;
73 -> 77 ;
78 [label="X[2] <= 0.042\nmse = 0.0\nsamples = 2\nvalue = 0.58"] ;
77 -> 78 ;
79 [label="mse = 0.0\nsamples = 1\nvalue = 0.588"] ;
78 -> 79 ;
80 [label="mse = -0.0\nsamples = 1\nvalue = 0.573"] ;
78 -> 80 ;
81 [label="mse = 0.0\nsamples = 1\nvalue = 0.558"] ;
77 -> 81 ;
82 [label="mse = 0.0\nsamples = 1\nvalue = 0.756"] ;
72 -> 82 ;
83 [label="X[4] <= 0.056\nmse = 0.014\nsamples = 4\nvalue = 0.834"] ;
71 -> 83 ;
84 [label="mse = 0.0\nsamples = 1\nvalue = 0.68"] ;
83 -> 84 ;
85 [label="X[4] <= 0.063\nmse = 0.01\nsamples = 3\nvalue = 0.872"] ;
83 -> 85 ;
86 [label="X[1] <= 0.069\nmse = 0.0\nsamples = 2\nvalue = 0.93"] ;
85 -> 86 ;
87 [label="mse = 0.0\nsamples = 1\nvalue = 0.945"] ;
86 -> 87 ;
88 [label="mse = 0.0\nsamples = 1\nvalue = 0.923"] ;
86 -> 88 ;
89 [label="mse = 0.0\nsamples = 1\nvalue = 0.699"] ;
85 -> 89 ;
90 [label="X[0] <= 0.091\nmse = 0.006\nsamples = 9\nvalue = 0.805"] ;
70 -> 90 ;
91 [label="X[3] <= 0.274\nmse = 0.001\nsamples = 3\nvalue = 0.885"] ;
90 -> 91 ;
92 [label="mse = 0.0\nsamples = 1\nvalue = 0.92"] ;
91 -> 92 ;
93 [label="X[4] <= 0.073\nmse = 0.0\nsamples = 2\nvalue = 0.861"] ;
91 -> 93 ;
94 [label="mse = 0.0\nsamples = 1\nvalue = 0.855"] ;
93 -> 94 ;
95 [label="mse = -0.0\nsamples = 1\nvalue = 0.874"] ;
93 -> 95 ;
96 [label="X[0] <= 0.093\nmse = 0.004\nsamples = 6\nvalue = 0.769"] ;
90 -> 96 ;
97 [label="X[3] <= 0.288\nmse = 0.003\nsamples = 4\nvalue = 0.797"] ;
96 -> 97 ;
98 [label="X[3] <= 0.284\nmse = 0.0\nsamples = 2\nvalue = 0.882"] ;
97 -> 98 ;
99 [label="mse = 0.0\nsamples = 1\nvalue = 0.886"] ;
98 -> 99 ;
100 [label="mse = 0.0\nsamples = 1\nvalue = 0.877"] ;
98 -> 100 ;
101 [label="X[1] <= 0.069\nmse = 0.0\nsamples = 2\nvalue = 0.768"] ;
97 -> 101 ;
102 [label="mse = 0.0\nsamples = 1\nvalue = 0.779"] ;
101 -> 102 ;
103 [label="mse = -0.0\nsamples = 1\nvalue = 0.747"] ;
101 -> 103 ;
104 [label="X[4] <= 0.068\nmse = 0.0\nsamples = 2\nvalue = 0.695"] ;
96 -> 104 ;
105 [label="mse = 0.0\nsamples = 1\nvalue = 0.694"] ;
104 -> 105 ;
106 [label="mse = 0.0\nsamples = 1\nvalue = 0.696"] ;
104 -> 106 ;
107 [label="X[0] <= 0.091\nmse = 0.001\nsamples = 2\nvalue = 0.924"] ;
69 -> 107 ;
108 [label="mse = 0.0\nsamples = 1\nvalue = 0.977"] ;
107 -> 108 ;
109 [label="mse = 0.0\nsamples = 1\nvalue = 0.897"] ;
107 -> 109 ;
110 [label="mse = 0.0\nsamples = 1\nvalue = 0.258"] ;
68 -> 110 ;
111 [label="X[5] <= 0.024\nmse = 0.036\nsamples = 10\nvalue = 0.564"] ;
67 -> 111 ;
112 [label="X[4] <= 0.065\nmse = 0.023\nsamples = 8\nvalue = 0.611"] ;
111 -> 112 ;
113 [label="mse = -0.0\nsamples = 1\nvalue = 0.435"] ;
112 -> 113 ;
114 [label="X[4] <= 0.074\nmse = 0.017\nsamples = 7\nvalue = 0.664"] ;
112 -> 114 ;
115 [label="X[0] <= 0.091\nmse = 0.002\nsamples = 5\nvalue = 0.738"] ;
114 -> 115 ;
116 [label="X[2] <= 0.042\nmse = 0.001\nsamples = 4\nvalue = 0.72"] ;
115 -> 116 ;
117 [label="X[4] <= 0.068\nmse = 0.0\nsamples = 2\nvalue = 0.735"] ;
116 -> 117 ;
118 [label="mse = 0.0\nsamples = 1\nvalue = 0.742"] ;
117 -> 118 ;
119 [label="mse = -0.0\nsamples = 1\nvalue = 0.728"] ;
117 -> 119 ;
120 [label="X[1] <= 0.068\nmse = 0.001\nsamples = 2\nvalue = 0.709"] ;
116 -> 120 ;
121 [label="mse = 0.0\nsamples = 1\nvalue = 0.67"] ;
120 -> 121 ;
122 [label="mse = -0.0\nsamples = 1\nvalue = 0.729"] ;
120 -> 122 ;
123 [label="mse = 0.0\nsamples = 1\nvalue = 0.833"] ;
115 -> 123 ;
124 [label="X[1] <= 0.07\nmse = 0.02\nsamples = 2\nvalue = 0.553"] ;
114 -> 124 ;
125 [label="mse = 0.0\nsamples = 1\nvalue = 0.311"] ;
124 -> 125 ;
126 [label="mse = 0.0\nsamples = 1\nvalue = 0.634"] ;
124 -> 126 ;
127 [label="X[0] <= 0.091\nmse = 0.013\nsamples = 2\nvalue = 0.258"] ;
111 -> 127 ;
128 [label="mse = 0.0\nsamples = 1\nvalue = 0.374"] ;
127 -> 128 ;
129 [label="mse = -0.0\nsamples = 1\nvalue = 0.142"] ;
127 -> 129 ;
130 [label="X[1] <= 0.068\nmse = 0.009\nsamples = 11\nvalue = 0.826"] ;
66 -> 130 ;
131 [label="X[3] <= 0.324\nmse = 0.001\nsamples = 3\nvalue = 0.938"] ;
130 -> 131 ;
132 [label="X[5] <= 0.022\nmse = 0.0\nsamples = 2\nvalue = 0.916"] ;
131 -> 132 ;
133 [label="mse = 0.0\nsamples = 1\nvalue = 0.894"] ;
132 -> 133 ;
134 [label="mse = 0.0\nsamples = 1\nvalue = 0.937"] ;
132 -> 134 ;
135 [label="mse = -0.0\nsamples = 1\nvalue = 0.984"] ;
131 -> 135 ;
136 [label="X[2] <= 0.042\nmse = 0.004\nsamples = 8\nvalue = 0.78"] ;
130 -> 136 ;
137 [label="mse = 0.0\nsamples = 1\nvalue = 0.907"] ;
136 -> 137 ;
138 [label="X[5] <= 0.025\nmse = 0.002\nsamples = 7\nvalue = 0.761"] ;
136 -> 138 ;
139 [label="X[0] <= 0.091\nmse = 0.001\nsamples = 6\nvalue = 0.782"] ;
138 -> 139 ;
140 [label="X[1] <= 0.071\nmse = 0.0\nsamples = 3\nvalue = 0.767"] ;
139 -> 140 ;
141 [label="X[3] <= 0.317\nmse = 0.0\nsamples = 2\nvalue = 0.773"] ;
140 -> 141 ;
142 [label="mse = 0.0\nsamples = 1\nvalue = 0.772"] ;
141 -> 142 ;
143 [label="mse = 0.0\nsamples = 1\nvalue = 0.774"] ;
141 -> 143 ;
144 [label="mse = 0.0\nsamples = 1\nvalue = 0.754"] ;
140 -> 144 ;
145 [label="X[2] <= 0.043\nmse = 0.001\nsamples = 3\nvalue = 0.815"] ;
139 -> 145 ;
146 [label="mse = 0.0\nsamples = 1\nvalue = 0.768"] ;
145 -> 146 ;
147 [label="X[3] <= 0.318\nmse = 0.0\nsamples = 2\nvalue = 0.838"] ;
145 -> 147 ;
148 [label="mse = 0.0\nsamples = 1\nvalue = 0.834"] ;
147 -> 148 ;
149 [label="mse = -0.0\nsamples = 1\nvalue = 0.842"] ;
147 -> 149 ;
150 [label="mse = -0.0\nsamples = 1\nvalue = 0.692"] ;
138 -> 150 ;
151 [label="X[5] <= 0.025\nmse = 0.016\nsamples = 24\nvalue = 0.82"] ;
65 -> 151 ;
152 [label="X[3] <= 0.287\nmse = 0.007\nsamples = 17\nvalue = 0.842"] ;
151 -> 152 ;
153 [label="X[4] <= 0.071\nmse = 0.009\nsamples = 10\nvalue = 0.809"] ;
152 -> 153 ;
154 [label="X[0] <= 0.094\nmse = 0.003\nsamples = 6\nvalue = 0.86"] ;
153 -> 154 ;
155 [label="X[3] <= 0.273\nmse = 0.0\nsamples = 5\nvalue = 0.878"] ;
154 -> 155 ;
156 [label="X[4] <= 0.063\nmse = 0.0\nsamples = 2\nvalue = 0.868"] ;
155 -> 156 ;
157 [label="mse = 0.0\nsamples = 1\nvalue = 0.875"] ;
156 -> 157 ;
158 [label="mse = -0.0\nsamples = 1\nvalue = 0.863"] ;
156 -> 158 ;
159 [label="X[4] <= 0.066\nmse = 0.0\nsamples = 3\nvalue = 0.891"] ;
155 -> 159 ;
160 [label="mse = 0.0\nsamples = 1\nvalue = 0.898"] ;
159 -> 160 ;
161 [label="mse = 0.0\nsamples = 2\nvalue = 0.888"] ;
159 -> 161 ;
162 [label="mse = 0.0\nsamples = 1\nvalue = 0.696"] ;
154 -> 162 ;
163 [label="X[4] <= 0.073\nmse = 0.007\nsamples = 4\nvalue = 0.726"] ;
153 -> 163 ;
164 [label="X[3] <= 0.281\nmse = 0.001\nsamples = 2\nvalue = 0.648"] ;
163 -> 164 ;
165 [label="mse = 0.0\nsamples = 1\nvalue = 0.701"] ;
164 -> 165 ;
166 [label="mse = 0.0\nsamples = 1\nvalue = 0.622"] ;
164 -> 166 ;
167 [label="X[3] <= 0.283\nmse = 0.001\nsamples = 2\nvalue = 0.803"] ;
163 -> 167 ;
168 [label="mse = 0.0\nsamples = 1\nvalue = 0.763"] ;
167 -> 168 ;
169 [label="mse = 0.0\nsamples = 1\nvalue = 0.823"] ;
167 -> 169 ;
170 [label="X[3] <= 0.291\nmse = 0.001\nsamples = 7\nvalue = 0.889"] ;
152 -> 170 ;
171 [label="mse = 0.0\nsamples = 1\nvalue = 0.929"] ;
170 -> 171 ;
172 [label="X[1] <= 0.07\nmse = 0.001\nsamples = 6\nvalue = 0.867"] ;
170 -> 172 ;
173 [label="X[4] <= 0.071\nmse = 0.0\nsamples = 2\nvalue = 0.827"] ;
172 -> 173 ;
174 [label="mse = 0.0\nsamples = 1\nvalue = 0.816"] ;
173 -> 174 ;
175 [label="mse = 0.0\nsamples = 1\nvalue = 0.839"] ;
173 -> 175 ;
176 [label="X[4] <= 0.07\nmse = 0.0\nsamples = 4\nvalue = 0.882"] ;
172 -> 176 ;
177 [label="mse = 0.0\nsamples = 1\nvalue = 0.894"] ;
176 -> 177 ;
178 [label="X[4] <= 0.073\nmse = 0.0\nsamples = 3\nvalue = 0.875"] ;
176 -> 178 ;
179 [label="X[0] <= 0.093\nmse = 0.0\nsamples = 2\nvalue = 0.879"] ;
178 -> 179 ;
180 [label="mse = 0.0\nsamples = 1\nvalue = 0.879"] ;
179 -> 180 ;
181 [label="mse = -0.0\nsamples = 1\nvalue = 0.878"] ;
179 -> 181 ;
182 [label="mse = 0.0\nsamples = 1\nvalue = 0.867"] ;
178 -> 182 ;
183 [label="X[0] <= 0.093\nmse = 0.035\nsamples = 7\nvalue = 0.761"] ;
151 -> 183 ;
184 [label="X[1] <= 0.069\nmse = 0.005\nsamples = 3\nvalue = 0.947"] ;
183 -> 184 ;
185 [label="X[4] <= 0.08\nmse = 0.0\nsamples = 2\nvalue = 0.986"] ;
184 -> 185 ;
186 [label="mse = 0.0\nsamples = 1\nvalue = 0.98"] ;
185 -> 186 ;
187 [label="mse = -0.0\nsamples = 1\nvalue = 0.989"] ;
185 -> 187 ;
188 [label="mse = -0.0\nsamples = 1\nvalue = 0.83"] ;
184 -> 188 ;
189 [label="X[3] <= 0.289\nmse = 0.016\nsamples = 4\nvalue = 0.636"] ;
183 -> 189 ;
190 [label="X[3] <= 0.284\nmse = 0.0\nsamples = 2\nvalue = 0.762"] ;
189 -> 190 ;
191 [label="mse = 0.0\nsamples = 1\nvalue = 0.773"] ;
190 -> 191 ;
192 [label="mse = 0.0\nsamples = 1\nvalue = 0.752"] ;
190 -> 192 ;
193 [label="X[4] <= 0.078\nmse = 0.012\nsamples = 2\nvalue = 0.573"] ;
189 -> 193 ;
194 [label="mse = 0.0\nsamples = 1\nvalue = 0.462"] ;
193 -> 194 ;
195 [label="mse = -0.0\nsamples = 1\nvalue = 0.684"] ;
193 -> 195 ;
196 [label="X[4] <= 0.076\nmse = 0.024\nsamples = 6\nvalue = 0.518"] ;
62 -> 196 ;
197 [label="mse = 0.0\nsamples = 1\nvalue = 0.821"] ;
196 -> 197 ;
198 [label="X[2] <= 0.043\nmse = 0.018\nsamples = 5\nvalue = 0.49"] ;
196 -> 198 ;
199 [label="mse = 0.0\nsamples = 1\nvalue = 0.733"] ;
198 -> 199 ;
200 [label="X[0] <= 0.093\nmse = 0.013\nsamples = 4\nvalue = 0.466"] ;
198 -> 200 ;
201 [label="X[2] <= 0.044\nmse = 0.01\nsamples = 2\nvalue = 0.399"] ;
200 -> 201 ;
202 [label="mse = 0.0\nsamples = 1\nvalue = 0.538"] ;
201 -> 202 ;
203 [label="mse = 0.0\nsamples = 1\nvalue = 0.33"] ;
201 -> 203 ;
204 [label="X[3] <= 0.282\nmse = 0.001\nsamples = 2\nvalue = 0.566"] ;
200 -> 204 ;
205 [label="mse = 0.0\nsamples = 1\nvalue = 0.585"] ;
204 -> 205 ;
206 [label="mse = -0.0\nsamples = 1\nvalue = 0.511"] ;
204 -> 206 ;
207 [label="X[4] <= 0.082\nmse = 0.014\nsamples = 14\nvalue = 0.904"] ;
61 -> 207 ;
208 [label="X[1] <= 0.07\nmse = 0.002\nsamples = 8\nvalue = 0.949"] ;
207 -> 208 ;
209 [label="X[3] <= 0.311\nmse = 0.0\nsamples = 6\nvalue = 0.965"] ;
208 -> 209 ;
210 [label="X[3] <= 0.275\nmse = 0.0\nsamples = 5\nvalue = 0.96"] ;
209 -> 210 ;
211 [label="mse = 0.0\nsamples = 1\nvalue = 0.981"] ;
210 -> 211 ;
212 [label="X[4] <= 0.082\nmse = 0.0\nsamples = 4\nvalue = 0.957"] ;
210 -> 212 ;
213 [label="X[5] <= 0.026\nmse = 0.0\nsamples = 2\nvalue = 0.964"] ;
212 -> 213 ;
214 [label="mse = 0.0\nsamples = 1\nvalue = 0.962"] ;
213 -> 214 ;
215 [label="mse = -0.0\nsamples = 1\nvalue = 0.965"] ;
213 -> 215 ;
216 [label="X[0] <= 0.091\nmse = 0.0\nsamples = 2\nvalue = 0.954"] ;
212 -> 216 ;
217 [label="mse = 0.0\nsamples = 1\nvalue = 0.952"] ;
216 -> 217 ;
218 [label="mse = -0.0\nsamples = 1\nvalue = 0.954"] ;
216 -> 218 ;
219 [label="mse = -0.0\nsamples = 1\nvalue = 0.985"] ;
209 -> 219 ;
220 [label="X[3] <= 0.296\nmse = 0.006\nsamples = 2\nvalue = 0.864"] ;
208 -> 220 ;
221 [label="mse = 0.0\nsamples = 1\nvalue = 0.784"] ;
220 -> 221 ;
222 [label="mse = 0.0\nsamples = 1\nvalue = 0.944"] ;
220 -> 222 ;
223 [label="X[1] <= 0.068\nmse = 0.024\nsamples = 6\nvalue = 0.83"] ;
207 -> 223 ;
224 [label="mse = 0.0\nsamples = 1\nvalue = 0.651"] ;
223 -> 224 ;
225 [label="X[1] <= 0.069\nmse = 0.018\nsamples = 5\nvalue = 0.889"] ;
223 -> 225 ;
226 [label="X[5] <= 0.026\nmse = 0.0\nsamples = 2\nvalue = 0.989"] ;
225 -> 226 ;
227 [label="mse = 0.0\nsamples = 1\nvalue = 0.98"] ;
226 -> 227 ;
228 [label="mse = 0.0\nsamples = 1\nvalue = 0.994"] ;
226 -> 228 ;
229 [label="X[2] <= 0.043\nmse = 0.016\nsamples = 3\nvalue = 0.789"] ;
225 -> 229 ;
230 [label="mse = 0.0\nsamples = 1\nvalue = 0.965"] ;
229 -> 230 ;
231 [label="X[2] <= 0.044\nmse = 0.0\nsamples = 2\nvalue = 0.701"] ;
229 -> 231 ;
232 [label="mse = 0.0\nsamples = 1\nvalue = 0.686"] ;
231 -> 232 ;
233 [label="mse = -0.0\nsamples = 1\nvalue = 0.716"] ;
231 -> 233 ;
234 [label="X[2] <= 0.047\nmse = 0.028\nsamples = 20\nvalue = 0.593"] ;
4 -> 234 ;
235 [label="X[0] <= 0.092\nmse = 0.02\nsamples = 10\nvalue = 0.501"] ;
234 -> 235 ;
236 [label="X[4] <= 0.081\nmse = 0.02\nsamples = 3\nvalue = 0.617"] ;
235 -> 236 ;
237 [label="mse = 0.0\nsamples = 1\nvalue = 0.842"] ;
236 -> 237 ;
238 [label="X[5] <= 0.025\nmse = 0.0\nsamples = 2\nvalue = 0.527"] ;
236 -> 238 ;
239 [label="mse = 0.0\nsamples = 1\nvalue = 0.534"] ;
238 -> 239 ;
240 [label="mse = 0.0\nsamples = 1\nvalue = 0.517"] ;
238 -> 240 ;
241 [label="X[3] <= 0.289\nmse = 0.007\nsamples = 7\nvalue = 0.427"] ;
235 -> 241 ;
242 [label="X[5] <= 0.022\nmse = 0.0\nsamples = 2\nvalue = 0.526"] ;
241 -> 242 ;
243 [label="mse = 0.0\nsamples = 1\nvalue = 0.532"] ;
242 -> 243 ;
244 [label="mse = -0.0\nsamples = 1\nvalue = 0.515"] ;
242 -> 244 ;
245 [label="X[4] <= 0.08\nmse = 0.004\nsamples = 5\nvalue = 0.39"] ;
241 -> 245 ;
246 [label="X[3] <= 0.293\nmse = 0.001\nsamples = 3\nvalue = 0.359"] ;
245 -> 246 ;
247 [label="mse = 0.0\nsamples = 1\nvalue = 0.432"] ;
246 -> 247 ;
248 [label="X[2] <= 0.046\nmse = 0.0\nsamples = 2\nvalue = 0.344"] ;
246 -> 248 ;
249 [label="mse = 0.0\nsamples = 1\nvalue = 0.353"] ;
248 -> 249 ;
250 [label="mse = -0.0\nsamples = 1\nvalue = 0.331"] ;
248 -> 250 ;
251 [label="X[2] <= 0.045\nmse = 0.001\nsamples = 2\nvalue = 0.484"] ;
245 -> 251 ;
252 [label="mse = 0.0\nsamples = 1\nvalue = 0.458"] ;
251 -> 252 ;
253 [label="mse = 0.0\nsamples = 1\nvalue = 0.51"] ;
251 -> 253 ;
254 [label="X[4] <= 0.072\nmse = 0.015\nsamples = 10\nvalue = 0.702"] ;
234 -> 254 ;
255 [label="X[4] <= 0.053\nmse = 0.007\nsamples = 9\nvalue = 0.727"] ;
254 -> 255 ;
256 [label="X[1] <= 0.074\nmse = 0.001\nsamples = 2\nvalue = 0.549"] ;
255 -> 256 ;
257 [label="mse = 0.0\nsamples = 1\nvalue = 0.516"] ;
256 -> 257 ;
258 [label="mse = 0.0\nsamples = 1\nvalue = 0.582"] ;
256 -> 258 ;
259 [label="X[3] <= 0.263\nmse = 0.002\nsamples = 7\nvalue = 0.757"] ;
255 -> 259 ;
260 [label="X[3] <= 0.247\nmse = 0.001\nsamples = 4\nvalue = 0.735"] ;
259 -> 260 ;
261 [label="X[0] <= 0.094\nmse = 0.0\nsamples = 2\nvalue = 0.761"] ;
260 -> 261 ;
262 [label="mse = 0.0\nsamples = 1\nvalue = 0.748"] ;
261 -> 262 ;
263 [label="mse = 0.0\nsamples = 1\nvalue = 0.768"] ;
261 -> 263 ;
264 [label="X[0] <= 0.095\nmse = 0.0\nsamples = 2\nvalue = 0.716"] ;
260 -> 264 ;
265 [label="mse = 0.0\nsamples = 1\nvalue = 0.729"] ;
264 -> 265 ;
266 [label="mse = -0.0\nsamples = 1\nvalue = 0.702"] ;
264 -> 266 ;
267 [label="X[4] <= 0.061\nmse = 0.002\nsamples = 3\nvalue = 0.787"] ;
259 -> 267 ;
268 [label="mse = 0.0\nsamples = 1\nvalue = 0.753"] ;
267 -> 268 ;
269 [label="X[3] <= 0.278\nmse = 0.0\nsamples = 2\nvalue = 0.838"] ;
267 -> 269 ;
270 [label="mse = 0.0\nsamples = 1\nvalue = 0.846"] ;
269 -> 270 ;
271 [label="mse = 0.0\nsamples = 1\nvalue = 0.83"] ;
269 -> 271 ;
272 [label="mse = -0.0\nsamples = 1\nvalue = 0.358"] ;
254 -> 272 ;
273 [label="X[1] <= 0.071\nmse = 0.04\nsamples = 174\nvalue = 0.581"] ;
3 -> 273 ;
274 [label="X[0] <= 0.084\nmse = 0.039\nsamples = 76\nvalue = 0.636"] ;
273 -> 274 ;
275 [label="X[4] <= 0.117\nmse = 0.03\nsamples = 35\nvalue = 0.566"] ;
274 -> 275 ;
276 [label="X[3] <= 0.262\nmse = 0.021\nsamples = 18\nvalue = 0.665"] ;
275 -> 276 ;
277 [label="X[3] <= 0.248\nmse = 0.01\nsamples = 6\nvalue = 0.544"] ;
276 -> 277 ;
278 [label="X[1] <= 0.065\nmse = 0.0\nsamples = 3\nvalue = 0.625"] ;
277 -> 278 ;
279 [label="X[3] <= 0.24\nmse = 0.0\nsamples = 2\nvalue = 0.617"] ;
278 -> 279 ;
280 [label="mse = 0.0\nsamples = 1\nvalue = 0.605"] ;
279 -> 280 ;
281 [label="mse = 0.0\nsamples = 1\nvalue = 0.62"] ;
279 -> 281 ;
282 [label="mse = -0.0\nsamples = 1\nvalue = 0.666"] ;
278 -> 282 ;
283 [label="X[3] <= 0.253\nmse = 0.001\nsamples = 3\nvalue = 0.422"] ;
277 -> 283 ;
284 [label="mse = 0.0\nsamples = 1\nvalue = 0.466"] ;
283 -> 284 ;
285 [label="X[4] <= 0.107\nmse = 0.0\nsamples = 2\nvalue = 0.408"] ;
283 -> 285 ;
286 [label="mse = 0.0\nsamples = 1\nvalue = 0.407"] ;
285 -> 286 ;
287 [label="mse = -0.0\nsamples = 1\nvalue = 0.41"] ;
285 -> 287 ;
288 [label="X[4] <= 0.108\nmse = 0.013\nsamples = 12\nvalue = 0.737"] ;
276 -> 288 ;
289 [label="X[3] <= 0.28\nmse = 0.0\nsamples = 2\nvalue = 0.849"] ;
288 -> 289 ;
290 [label="mse = 0.0\nsamples = 1\nvalue = 0.85"] ;
289 -> 290 ;
291 [label="mse = 0.0\nsamples = 1\nvalue = 0.844"] ;
289 -> 291 ;
292 [label="X[3] <= 0.288\nmse = 0.011\nsamples = 10\nvalue = 0.69"] ;
288 -> 292 ;
293 [label="X[0] <= 0.083\nmse = 0.008\nsamples = 7\nvalue = 0.637"] ;
292 -> 293 ;
294 [label="X[3] <= 0.276\nmse = 0.004\nsamples = 6\nvalue = 0.612"] ;
293 -> 294 ;
295 [label="X[1] <= 0.065\nmse = 0.002\nsamples = 4\nvalue = 0.654"] ;
294 -> 295 ;
296 [label="X[1] <= 0.065\nmse = 0.002\nsamples = 3\nvalue = 0.635"] ;
295 -> 296 ;
297 [label="X[3] <= 0.271\nmse = 0.0\nsamples = 2\nvalue = 0.662"] ;
296 -> 297 ;
298 [label="mse = 0.0\nsamples = 1\nvalue = 0.644"] ;
297 -> 298 ;
299 [label="mse = 0.0\nsamples = 1\nvalue = 0.679"] ;
297 -> 299 ;
300 [label="mse = -0.0\nsamples = 1\nvalue = 0.581"] ;
296 -> 300 ;
301 [label="mse = 0.0\nsamples = 1\nvalue = 0.713"] ;
295 -> 301 ;
302 [label="X[0] <= 0.082\nmse = 0.0\nsamples = 2\nvalue = 0.555"] ;
294 -> 302 ;
303 [label="mse = 0.0\nsamples = 1\nvalue = 0.557"] ;
302 -> 303 ;
304 [label="mse = 0.0\nsamples = 1\nvalue = 0.554"] ;
302 -> 304 ;
305 [label="mse = -0.0\nsamples = 1\nvalue = 0.812"] ;
293 -> 305 ;
306 [label="X[3] <= 0.296\nmse = 0.002\nsamples = 3\nvalue = 0.796"] ;
292 -> 306 ;
307 [label="X[0] <= 0.082\nmse = 0.0\nsamples = 2\nvalue = 0.834"] ;
306 -> 307 ;
308 [label="mse = 0.0\nsamples = 1\nvalue = 0.813"] ;
307 -> 308 ;
309 [label="mse = 0.0\nsamples = 1\nvalue = 0.855"] ;
307 -> 309 ;
310 [label="mse = -0.0\nsamples = 1\nvalue = 0.758"] ;
306 -> 310 ;
311 [label="X[3] <= 0.305\nmse = 0.018\nsamples = 17\nvalue = 0.462"] ;
275 -> 311 ;
312 [label="X[1] <= 0.068\nmse = 0.009\nsamples = 8\nvalue = 0.376"] ;
311 -> 312 ;
313 [label="X[3] <= 0.275\nmse = 0.003\nsamples = 5\nvalue = 0.342"] ;
312 -> 313 ;
314 [label="mse = 0.0\nsamples = 1\nvalue = 0.501"] ;
313 -> 314 ;
315 [label="X[4] <= 0.121\nmse = 0.0\nsamples = 4\nvalue = 0.322"] ;
313 -> 315 ;
316 [label="mse = 0.0\nsamples = 1\nvalue = 0.294"] ;
315 -> 316 ;
317 [label="X[1] <= 0.065\nmse = 0.0\nsamples = 3\nvalue = 0.326"] ;
315 -> 317 ;
318 [label="mse = 0.0\nsamples = 1\nvalue = 0.313"] ;
317 -> 318 ;
319 [label="X[3] <= 0.286\nmse = 0.0\nsamples = 2\nvalue = 0.331"] ;
317 -> 319 ;
320 [label="mse = 0.0\nsamples = 1\nvalue = 0.335"] ;
319 -> 320 ;
321 [label="mse = 0.0\nsamples = 1\nvalue = 0.326"] ;
319 -> 321 ;
322 [label="X[3] <= 0.301\nmse = 0.011\nsamples = 3\nvalue = 0.479"] ;
312 -> 322 ;
323 [label="X[2] <= 0.042\nmse = 0.001\nsamples = 2\nvalue = 0.552"] ;
322 -> 323 ;
324 [label="mse = 0.0\nsamples = 1\nvalue = 0.579"] ;
323 -> 324 ;
325 [label="mse = -0.0\nsamples = 1\nvalue = 0.525"] ;
323 -> 325 ;
326 [label="mse = -0.0\nsamples = 1\nvalue = 0.334"] ;
322 -> 326 ;
327 [label="X[2] <= 0.042\nmse = 0.014\nsamples = 9\nvalue = 0.536"] ;
311 -> 327 ;
328 [label="X[4] <= 0.144\nmse = 0.011\nsamples = 6\nvalue = 0.495"] ;
327 -> 328 ;
329 [label="X[3] <= 0.323\nmse = 0.005\nsamples = 5\nvalue = 0.452"] ;
328 -> 329 ;
330 [label="X[5] <= 0.053\nmse = 0.003\nsamples = 4\nvalue = 0.435"] ;
329 -> 330 ;
331 [label="mse = 0.0\nsamples = 1\nvalue = 0.494"] ;
330 -> 331 ;
332 [label="X[0] <= 0.082\nmse = 0.001\nsamples = 3\nvalue = 0.39"] ;
330 -> 332 ;
333 [label="mse = 0.0\nsamples = 1\nvalue = 0.343"] ;
332 -> 333 ;
334 [label="X[3] <= 0.318\nmse = 0.0\nsamples = 2\nvalue = 0.406"] ;
332 -> 334 ;
335 [label="mse = 0.0\nsamples = 1\nvalue = 0.405"] ;
334 -> 335 ;
336 [label="mse = 0.0\nsamples = 1\nvalue = 0.406"] ;
334 -> 336 ;
337 [label="mse = -0.0\nsamples = 1\nvalue = 0.576"] ;
329 -> 337 ;
338 [label="mse = 0.0\nsamples = 1\nvalue = 0.666"] ;
328 -> 338 ;
339 [label="X[4] <= 0.129\nmse = 0.005\nsamples = 3\nvalue = 0.638"] ;
327 -> 339 ;
340 [label="mse = 0.0\nsamples = 1\nvalue = 0.525"] ;
339 -> 340 ;
341 [label="X[3] <= 0.31\nmse = 0.001\nsamples = 2\nvalue = 0.676"] ;
339 -> 341 ;
342 [label="mse = 0.0\nsamples = 1\nvalue = 0.719"] ;
341 -> 342 ;
343 [label="mse = -0.0\nsamples = 1\nvalue = 0.654"] ;
341 -> 343 ;
344 [label="X[0] <= 0.093\nmse = 0.039\nsamples = 41\nvalue = 0.694"] ;
274 -> 344 ;
345 [label="X[3] <= 0.28\nmse = 0.03\nsamples = 35\nvalue = 0.742"] ;
344 -> 345 ;
346 [label="X[4] <= 0.116\nmse = 0.028\nsamples = 10\nvalue = 0.627"] ;
345 -> 346 ;
347 [label="X[3] <= 0.268\nmse = 0.01\nsamples = 6\nvalue = 0.737"] ;
346 -> 347 ;
348 [label="X[5] <= 0.032\nmse = 0.004\nsamples = 5\nvalue = 0.708"] ;
347 -> 348 ;
349 [label="X[4] <= 0.081\nmse = 0.009\nsamples = 2\nvalue = 0.774"] ;
348 -> 349 ;
350 [label="mse = 0.0\nsamples = 1\nvalue = 0.68"] ;
349 -> 350 ;
351 [label="mse = -0.0\nsamples = 1\nvalue = 0.867"] ;
349 -> 351 ;
352 [label="X[4] <= 0.104\nmse = 0.0\nsamples = 3\nvalue = 0.686"] ;
348 -> 352 ;
353 [label="X[3] <= 0.254\nmse = 0.0\nsamples = 2\nvalue = 0.679"] ;
352 -> 353 ;
354 [label="mse = 0.0\nsamples = 1\nvalue = 0.661"] ;
353 -> 354 ;
355 [label="mse = -0.0\nsamples = 1\nvalue = 0.684"] ;
353 -> 355 ;
356 [label="mse = 0.0\nsamples = 1\nvalue = 0.718"] ;
352 -> 356 ;
357 [label="mse = 0.0\nsamples = 1\nvalue = 0.973"] ;
347 -> 357 ;
358 [label="X[3] <= 0.266\nmse = 0.008\nsamples = 4\nvalue = 0.461"] ;
346 -> 358 ;
359 [label="X[0] <= 0.086\nmse = 0.0\nsamples = 2\nvalue = 0.55"] ;
358 -> 359 ;
360 [label="mse = 0.0\nsamples = 1\nvalue = 0.577"] ;
359 -> 360 ;
361 [label="mse = -0.0\nsamples = 1\nvalue = 0.536"] ;
359 -> 361 ;
362 [label="X[1] <= 0.069\nmse = 0.0\nsamples = 2\nvalue = 0.372"] ;
358 -> 362 ;
363 [label="mse = 0.0\nsamples = 1\nvalue = 0.378"] ;
362 -> 363 ;
364 [label="mse = 0.0\nsamples = 1\nvalue = 0.361"] ;
362 -> 364 ;
365 [label="X[5] <= 0.029\nmse = 0.024\nsamples = 25\nvalue = 0.786"] ;
345 -> 365 ;
366 [label="X[3] <= 0.296\nmse = 0.037\nsamples = 4\nvalue = 0.611"] ;
365 -> 366 ;
367 [label="mse = 0.0\nsamples = 1\nvalue = 0.974"] ;
366 -> 367 ;
368 [label="X[3] <= 0.299\nmse = 0.006\nsamples = 3\nvalue = 0.521"] ;
366 -> 368 ;
369 [label="mse = 0.0\nsamples = 1\nvalue = 0.448"] ;
368 -> 369 ;
370 [label="X[0] <= 0.091\nmse = 0.001\nsamples = 2\nvalue = 0.593"] ;
368 -> 370 ;
371 [label="mse = 0.0\nsamples = 1\nvalue = 0.622"] ;
370 -> 371 ;
372 [label="mse = 0.0\nsamples = 1\nvalue = 0.565"] ;
370 -> 372 ;
373 [label="X[1] <= 0.067\nmse = 0.017\nsamples = 21\nvalue = 0.812"] ;
365 -> 373 ;
374 [label="mse = 0.0\nsamples = 1\nvalue = 0.442"] ;
373 -> 374 ;
375 [label="X[5] <= 0.054\nmse = 0.014\nsamples = 20\nvalue = 0.823"] ;
373 -> 375 ;
376 [label="X[0] <= 0.088\nmse = 0.006\nsamples = 14\nvalue = 0.873"] ;
375 -> 376 ;
377 [label="X[3] <= 0.306\nmse = 0.008\nsamples = 6\nvalue = 0.824"] ;
376 -> 377 ;
378 [label="X[5] <= 0.049\nmse = 0.003\nsamples = 3\nvalue = 0.765"] ;
377 -> 378 ;
379 [label="X[4] <= 0.118\nmse = 0.0\nsamples = 2\nvalue = 0.792"] ;
378 -> 379 ;
380 [label="mse = 0.0\nsamples = 1\nvalue = 0.774"] ;
379 -> 380 ;
381 [label="mse = -0.0\nsamples = 1\nvalue = 0.81"] ;
379 -> 381 ;
382 [label="mse = 0.0\nsamples = 1\nvalue = 0.657"] ;
378 -> 382 ;
383 [label="X[0] <= 0.086\nmse = 0.0\nsamples = 3\nvalue = 0.923"] ;
377 -> 383 ;
384 [label="mse = 0.0\nsamples = 1\nvalue = 0.896"] ;
383 -> 384 ;
385 [label="X[1] <= 0.068\nmse = 0.0\nsamples = 2\nvalue = 0.936"] ;
383 -> 385 ;
386 [label="mse = 0.0\nsamples = 1\nvalue = 0.926"] ;
385 -> 386 ;
387 [label="mse = 0.0\nsamples = 1\nvalue = 0.946"] ;
385 -> 387 ;
388 [label="X[4] <= 0.1\nmse = 0.003\nsamples = 8\nvalue = 0.901"] ;
376 -> 388 ;
389 [label="mse = 0.0\nsamples = 1\nvalue = 0.988"] ;
388 -> 389 ;
390 [label="X[3] <= 0.321\nmse = 0.002\nsamples = 7\nvalue = 0.887"] ;
388 -> 390 ;
391 [label="X[4] <= 0.115\nmse = 0.001\nsamples = 5\nvalue = 0.868"] ;
390 -> 391 ;
392 [label="mse = 0.0\nsamples = 1\nvalue = 0.83"] ;
391 -> 392 ;
393 [label="X[5] <= 0.047\nmse = 0.001\nsamples = 4\nvalue = 0.879"] ;
391 -> 393 ;
394 [label="X[3] <= 0.303\nmse = 0.001\nsamples = 2\nvalue = 0.901"] ;
393 -> 394 ;
395 [label="mse = 0.0\nsamples = 1\nvalue = 0.884"] ;
394 -> 395 ;
396 [label="mse = 0.0\nsamples = 1\nvalue = 0.934"] ;
394 -> 396 ;
397 [label="X[4] <= 0.127\nmse = 0.0\nsamples = 2\nvalue = 0.862"] ;
393 -> 397 ;
398 [label="mse = 0.0\nsamples = 1\nvalue = 0.861"] ;
397 -> 398 ;
399 [label="mse = -0.0\nsamples = 1\nvalue = 0.863"] ;
397 -> 399 ;
400 [label="X[0] <= 0.09\nmse = 0.0\nsamples = 2\nvalue = 0.945"] ;
390 -> 400 ;
401 [label="mse = 0.0\nsamples = 1\nvalue = 0.94"] ;
400 -> 401 ;
402 [label="mse = 0.0\nsamples = 1\nvalue = 0.954"] ;
400 -> 402 ;
403 [label="X[1] <= 0.068\nmse = 0.014\nsamples = 6\nvalue = 0.723"] ;
375 -> 403 ;
404 [label="mse = 0.0\nsamples = 1\nvalue = 0.957"] ;
403 -> 404 ;
405 [label="X[4] <= 0.137\nmse = 0.002\nsamples = 5\nvalue = 0.671"] ;
403 -> 405 ;
406 [label="mse = 0.0\nsamples = 1\nvalue = 0.571"] ;
405 -> 406 ;
407 [label="X[5] <= 0.061\nmse = 0.001\nsamples = 4\nvalue = 0.684"] ;
405 -> 407 ;
408 [label="X[2] <= 0.045\nmse = 0.0\nsamples = 3\nvalue = 0.693"] ;
407 -> 408 ;
409 [label="X[1] <= 0.069\nmse = 0.0\nsamples = 2\nvalue = 0.69"] ;
408 -> 409 ;
410 [label="mse = 0.0\nsamples = 1\nvalue = 0.692"] ;
409 -> 410 ;
411 [label="mse = 0.0\nsamples = 1\nvalue = 0.687"] ;
409 -> 411 ;
412 [label="mse = 0.0\nsamples = 1\nvalue = 0.707"] ;
408 -> 412 ;
413 [label="mse = 0.0\nsamples = 1\nvalue = 0.621"] ;
407 -> 413 ;
414 [label="X[4] <= 0.085\nmse = 0.006\nsamples = 6\nvalue = 0.435"] ;
344 -> 414 ;
415 [label="X[2] <= 0.047\nmse = 0.003\nsamples = 5\nvalue = 0.466"] ;
414 -> 415 ;
416 [label="X[3] <= 0.283\nmse = 0.003\nsamples = 4\nvalue = 0.477"] ;
415 -> 416 ;
417 [label="mse = 0.0\nsamples = 1\nvalue = 0.597"] ;
416 -> 417 ;
418 [label="X[2] <= 0.045\nmse = 0.0\nsamples = 3\nvalue = 0.457"] ;
416 -> 418 ;
419 [label="mse = 0.0\nsamples = 1\nvalue = 0.431"] ;
418 -> 419 ;
420 [label="X[5] <= 0.028\nmse = 0.0\nsamples = 2\nvalue = 0.462"] ;
418 -> 420 ;
421 [label="mse = 0.0\nsamples = 1\nvalue = 0.477"] ;
420 -> 421 ;
422 [label="mse = -0.0\nsamples = 1\nvalue = 0.458"] ;
420 -> 422 ;
423 [label="mse = -0.0\nsamples = 1\nvalue = 0.389"] ;
415 -> 423 ;
424 [label="mse = 0.0\nsamples = 1\nvalue = 0.313"] ;
414 -> 424 ;
425 [label="X[1] <= 0.077\nmse = 0.036\nsamples = 98\nvalue = 0.54"] ;
273 -> 425 ;
426 [label="X[0] <= 0.087\nmse = 0.032\nsamples = 94\nvalue = 0.528"] ;
425 -> 426 ;
427 [label="X[3] <= 0.314\nmse = 0.012\nsamples = 8\nvalue = 0.416"] ;
426 -> 427 ;
428 [label="X[4] <= 0.122\nmse = 0.005\nsamples = 5\nvalue = 0.368"] ;
427 -> 428 ;
429 [label="mse = 0.0\nsamples = 1\nvalue = 0.444"] ;
428 -> 429 ;
430 [label="X[2] <= 0.047\nmse = 0.003\nsamples = 4\nvalue = 0.339"] ;
428 -> 430 ;
431 [label="X[0] <= 0.086\nmse = 0.0\nsamples = 3\nvalue = 0.319"] ;
430 -> 431 ;
432 [label="X[0] <= 0.084\nmse = 0.0\nsamples = 2\nvalue = 0.332"] ;
431 -> 432 ;
433 [label="mse = 0.0\nsamples = 1\nvalue = 0.336"] ;
432 -> 433 ;
434 [label="mse = -0.0\nsamples = 1\nvalue = 0.326"] ;
432 -> 434 ;
435 [label="mse = 0.0\nsamples = 1\nvalue = 0.287"] ;
431 -> 435 ;
436 [label="mse = -0.0\nsamples = 1\nvalue = 0.48"] ;
430 -> 436 ;
437 [label="X[2] <= 0.045\nmse = 0.012\nsamples = 3\nvalue = 0.504"] ;
427 -> 437 ;
438 [label="X[1] <= 0.071\nmse = 0.0\nsamples = 2\nvalue = 0.426"] ;
437 -> 438 ;
439 [label="mse = 0.0\nsamples = 1\nvalue = 0.462"] ;
438 -> 439 ;
440 [label="mse = 0.0\nsamples = 1\nvalue = 0.414"] ;
438 -> 440 ;
441 [label="mse = 0.0\nsamples = 1\nvalue = 0.66"] ;
437 -> 441 ;
442 [label="X[5] <= 0.043\nmse = 0.033\nsamples = 86\nvalue = 0.543"] ;
426 -> 442 ;
443 [label="X[5] <= 0.028\nmse = 0.03\nsamples = 71\nvalue = 0.515"] ;
442 -> 443 ;
444 [label="X[2] <= 0.045\nmse = 0.021\nsamples = 9\nvalue = 0.642"] ;
443 -> 444 ;
445 [label="X[0] <= 0.092\nmse = 0.004\nsamples = 2\nvalue = 0.825"] ;
444 -> 445 ;
446 [label="mse = 0.0\nsamples = 1\nvalue = 0.888"] ;
445 -> 446 ;
447 [label="mse = 0.0\nsamples = 1\nvalue = 0.762"] ;
445 -> 447 ;
448 [label="X[4] <= 0.084\nmse = 0.017\nsamples = 7\nvalue = 0.614"] ;
444 -> 448 ;
449 [label="X[4] <= 0.08\nmse = 0.018\nsamples = 6\nvalue = 0.646"] ;
448 -> 449 ;
450 [label="X[4] <= 0.071\nmse = 0.007\nsamples = 5\nvalue = 0.59"] ;
449 -> 450 ;
451 [label="mse = 0.0\nsamples = 1\nvalue = 0.786"] ;
450 -> 451 ;
452 [label="X[0] <= 0.096\nmse = 0.001\nsamples = 4\nvalue = 0.562"] ;
450 -> 452 ;
453 [label="X[4] <= 0.076\nmse = 0.0\nsamples = 3\nvalue = 0.583"] ;
452 -> 453 ;
454 [label="mse = 0.0\nsamples = 1\nvalue = 0.601"] ;
453 -> 454 ;
455 [label="X[2] <= 0.049\nmse = 0.0\nsamples = 2\nvalue = 0.571"] ;
453 -> 455 ;
456 [label="mse = 0.0\nsamples = 1\nvalue = 0.598"] ;
455 -> 456 ;
457 [label="mse = 0.0\nsamples = 1\nvalue = 0.558"] ;
455 -> 457 ;
458 [label="mse = -0.0\nsamples = 1\nvalue = 0.51"] ;
452 -> 458 ;
459 [label="mse = -0.0\nsamples = 1\nvalue = 0.87"] ;
449 -> 459 ;
460 [label="mse = 0.0\nsamples = 1\nvalue = 0.508"] ;
448 -> 460 ;
461 [label="X[4] <= 0.08\nmse = 0.029\nsamples = 62\nvalue = 0.495"] ;
443 -> 461 ;
462 [label="mse = 0.0\nsamples = 1\nvalue = 0.827"] ;
461 -> 462 ;
463 [label="X[4] <= 0.082\nmse = 0.027\nsamples = 61\nvalue = 0.488"] ;
461 -> 463 ;
464 [label="X[3] <= 0.261\nmse = 0.0\nsamples = 3\nvalue = 0.256"] ;
463 -> 464 ;
465 [label="mse = 0.0\nsamples = 1\nvalue = 0.238"] ;
464 -> 465 ;
466 [label="X[1] <= 0.073\nmse = 0.0\nsamples = 2\nvalue = 0.264"] ;
464 -> 466 ;
467 [label="mse = 0.0\nsamples = 1\nvalue = 0.263"] ;
466 -> 467 ;
468 [label="mse = -0.0\nsamples = 1\nvalue = 0.269"] ;
466 -> 468 ;
469 [label="X[3] <= 0.304\nmse = 0.025\nsamples = 58\nvalue = 0.504"] ;
463 -> 469 ;
470 [label="X[5] <= 0.035\nmse = 0.015\nsamples = 40\nvalue = 0.541"] ;
469 -> 470 ;
471 [label="X[5] <= 0.029\nmse = 0.014\nsamples = 35\nvalue = 0.557"] ;
470 -> 471 ;
472 [label="X[3] <= 0.299\nmse = 0.008\nsamples = 7\nvalue = 0.621"] ;
471 -> 472 ;
473 [label="X[3] <= 0.291\nmse = 0.002\nsamples = 5\nvalue = 0.588"] ;
472 -> 473 ;
474 [label="X[3] <= 0.277\nmse = 0.0\nsamples = 3\nvalue = 0.607"] ;
473 -> 474 ;
475 [label="mse = 0.0\nsamples = 1\nvalue = 0.63"] ;
474 -> 475 ;
476 [label="X[4] <= 0.083\nmse = 0.0\nsamples = 2\nvalue = 0.601"] ;
474 -> 476 ;
477 [label="mse = 0.0\nsamples = 1\nvalue = 0.605"] ;
476 -> 477 ;
478 [label="mse = -0.0\nsamples = 1\nvalue = 0.595"] ;
476 -> 478 ;
479 [label="X[4] <= 0.085\nmse = 0.0\nsamples = 2\nvalue = 0.502"] ;
473 -> 479 ;
480 [label="mse = 0.0\nsamples = 1\nvalue = 0.483"] ;
479 -> 480 ;
481 [label="mse = 0.0\nsamples = 1\nvalue = 0.521"] ;
479 -> 481 ;
482 [label="X[1] <= 0.073\nmse = 0.001\nsamples = 2\nvalue = 0.804"] ;
472 -> 482 ;
483 [label="mse = 0.0\nsamples = 1\nvalue = 0.777"] ;
482 -> 483 ;
484 [label="mse = -0.0\nsamples = 1\nvalue = 0.832"] ;
482 -> 484 ;
485 [label="X[4] <= 0.091\nmse = 0.014\nsamples = 28\nvalue = 0.535"] ;
471 -> 485 ;
486 [label="X[4] <= 0.082\nmse = 0.014\nsamples = 22\nvalue = 0.515"] ;
485 -> 486 ;
487 [label="X[1] <= 0.072\nmse = 0.005\nsamples = 2\nvalue = 0.694"] ;
486 -> 487 ;
488 [label="mse = 0.0\nsamples = 1\nvalue = 0.763"] ;
487 -> 488 ;
489 [label="mse = 0.0\nsamples = 1\nvalue = 0.624"] ;
487 -> 489 ;
490 [label="X[0] <= 0.093\nmse = 0.012\nsamples = 20\nvalue = 0.502"] ;
486 -> 490 ;
491 [label="X[1] <= 0.071\nmse = 0.009\nsamples = 6\nvalue = 0.58"] ;
490 -> 491 ;
492 [label="X[3] <= 0.269\nmse = 0.0\nsamples = 2\nvalue = 0.475"] ;
491 -> 492 ;
493 [label="mse = 0.0\nsamples = 1\nvalue = 0.461"] ;
492 -> 493 ;
494 [label="mse = -0.0\nsamples = 1\nvalue = 0.488"] ;
492 -> 494 ;
495 [label="X[3] <= 0.27\nmse = 0.006\nsamples = 4\nvalue = 0.622"] ;
491 -> 495 ;
496 [label="X[2] <= 0.048\nmse = 0.002\nsamples = 2\nvalue = 0.536"] ;
495 -> 496 ;
497 [label="mse = 0.0\nsamples = 1\nvalue = 0.487"] ;
496 -> 497 ;
498 [label="mse = -0.0\nsamples = 1\nvalue = 0.585"] ;
496 -> 498 ;
499 [label="X[4] <= 0.087\nmse = 0.0\nsamples = 2\nvalue = 0.679"] ;
495 -> 499 ;
500 [label="mse = 0.0\nsamples = 1\nvalue = 0.662"] ;
499 -> 500 ;
501 [label="mse = 0.0\nsamples = 1\nvalue = 0.687"] ;
499 -> 501 ;
502 [label="X[3] <= 0.283\nmse = 0.011\nsamples = 14\nvalue = 0.478"] ;
490 -> 502 ;
503 [label="X[2] <= 0.049\nmse = 0.004\nsamples = 3\nvalue = 0.434"] ;
502 -> 503 ;
504 [label="X[1] <= 0.073\nmse = 0.001\nsamples = 2\nvalue = 0.404"] ;
503 -> 504 ;
505 [label="mse = 0.0\nsamples = 1\nvalue = 0.349"] ;
504 -> 505 ;
506 [label="mse = 0.0\nsamples = 1\nvalue = 0.431"] ;
504 -> 506 ;
507 [label="mse = -0.0\nsamples = 1\nvalue = 0.523"] ;
503 -> 507 ;
508 [label="X[5] <= 0.03\nmse = 0.012\nsamples = 11\nvalue = 0.488"] ;
502 -> 508 ;
509 [label="X[3] <= 0.288\nmse = 0.014\nsamples = 8\nvalue = 0.467"] ;
508 -> 509 ;
510 [label="X[1] <= 0.071\nmse = 0.03\nsamples = 2\nvalue = 0.423"] ;
509 -> 510 ;
511 [label="mse = -0.0\nsamples = 1\nvalue = 0.322"] ;
510 -> 511 ;
512 [label="mse = 0.0\nsamples = 1\nvalue = 0.725"] ;
510 -> 512 ;
513 [label="X[3] <= 0.293\nmse = 0.006\nsamples = 6\nvalue = 0.487"] ;
509 -> 513 ;
514 [label="mse = 0.0\nsamples = 1\nvalue = 0.583"] ;
513 -> 514 ;
515 [label="X[5] <= 0.029\nmse = 0.002\nsamples = 5\nvalue = 0.438"] ;
513 -> 515 ;
516 [label="X[2] <= 0.048\nmse = 0.0\nsamples = 2\nvalue = 0.486"] ;
515 -> 516 ;
517 [label="mse = 0.0\nsamples = 1\nvalue = 0.478"] ;
516 -> 517 ;
518 [label="mse = 0.0\nsamples = 1\nvalue = 0.494"] ;
516 -> 518 ;
519 [label="X[1] <= 0.071\nmse = 0.001\nsamples = 3\nvalue = 0.414"] ;
515 -> 519 ;
520 [label="mse = 0.0\nsamples = 1\nvalue = 0.46"] ;
519 -> 520 ;
521 [label="X[0] <= 0.094\nmse = 0.0\nsamples = 2\nvalue = 0.399"] ;
519 -> 521 ;
522 [label="mse = 0.0\nsamples = 1\nvalue = 0.4"] ;
521 -> 522 ;
523 [label="mse = 0.0\nsamples = 1\nvalue = 0.399"] ;
521 -> 523 ;
524 [label="X[1] <= 0.073\nmse = 0.002\nsamples = 3\nvalue = 0.542"] ;
508 -> 524 ;
525 [label="X[1] <= 0.072\nmse = 0.0\nsamples = 2\nvalue = 0.576"] ;
524 -> 525 ;
526 [label="mse = 0.0\nsamples = 1\nvalue = 0.574"] ;
525 -> 526 ;
527 [label="mse = 0.0\nsamples = 1\nvalue = 0.58"] ;
525 -> 527 ;
528 [label="mse = 0.0\nsamples = 1\nvalue = 0.491"] ;
524 -> 528 ;
529 [label="X[2] <= 0.048\nmse = 0.003\nsamples = 6\nvalue = 0.625"] ;
485 -> 529 ;
530 [label="X[4] <= 0.093\nmse = 0.001\nsamples = 3\nvalue = 0.672"] ;
529 -> 530 ;
531 [label="mse = 0.0\nsamples = 1\nvalue = 0.642"] ;
530 -> 531 ;
532 [label="X[5] <= 0.034\nmse = 0.0\nsamples = 2\nvalue = 0.702"] ;
530 -> 532 ;
533 [label="mse = 0.0\nsamples = 1\nvalue = 0.695"] ;
532 -> 533 ;
534 [label="mse = -0.0\nsamples = 1\nvalue = 0.708"] ;
532 -> 534 ;
535 [label="X[0] <= 0.095\nmse = 0.0\nsamples = 3\nvalue = 0.563"] ;
529 -> 535 ;
536 [label="X[3] <= 0.298\nmse = 0.0\nsamples = 2\nvalue = 0.573"] ;
535 -> 536 ;
537 [label="mse = 0.0\nsamples = 1\nvalue = 0.575"] ;
536 -> 537 ;
538 [label="mse = 0.0\nsamples = 1\nvalue = 0.572"] ;
536 -> 538 ;
539 [label="mse = -0.0\nsamples = 1\nvalue = 0.543"] ;
535 -> 539 ;
540 [label="X[1] <= 0.075\nmse = 0.006\nsamples = 5\nvalue = 0.421"] ;
470 -> 540 ;
541 [label="X[4] <= 0.094\nmse = 0.002\nsamples = 3\nvalue = 0.465"] ;
540 -> 541 ;
542 [label="mse = 0.0\nsamples = 1\nvalue = 0.512"] ;
541 -> 542 ;
543 [label="X[3] <= 0.256\nmse = 0.0\nsamples = 2\nvalue = 0.433"] ;
541 -> 543 ;
544 [label="mse = 0.0\nsamples = 1\nvalue = 0.408"] ;
543 -> 544 ;
545 [label="mse = -0.0\nsamples = 1\nvalue = 0.446"] ;
543 -> 545 ;
546 [label="X[4] <= 0.094\nmse = 0.001\nsamples = 2\nvalue = 0.31"] ;
540 -> 546 ;
547 [label="mse = 0.0\nsamples = 1\nvalue = 0.349"] ;
546 -> 547 ;
548 [label="mse = 0.0\nsamples = 1\nvalue = 0.272"] ;
546 -> 548 ;
549 [label="X[5] <= 0.036\nmse = 0.037\nsamples = 18\nvalue = 0.429"] ;
469 -> 549 ;
550 [label="X[3] <= 0.315\nmse = 0.025\nsamples = 17\nvalue = 0.396"] ;
549 -> 550 ;
551 [label="X[4] <= 0.09\nmse = 0.014\nsamples = 10\nvalue = 0.327"] ;
550 -> 551 ;
552 [label="X[3] <= 0.308\nmse = 0.005\nsamples = 4\nvalue = 0.427"] ;
551 -> 552 ;
553 [label="mse = 0.0\nsamples = 1\nvalue = 0.546"] ;
552 -> 553 ;
554 [label="X[3] <= 0.311\nmse = 0.002\nsamples = 3\nvalue = 0.397"] ;
552 -> 554 ;
555 [label="X[5] <= 0.029\nmse = 0.001\nsamples = 2\nvalue = 0.422"] ;
554 -> 555 ;
556 [label="mse = 0.0\nsamples = 1\nvalue = 0.405"] ;
555 -> 556 ;
557 [label="mse = -0.0\nsamples = 1\nvalue = 0.457"] ;
555 -> 557 ;
558 [label="mse = 0.0\nsamples = 1\nvalue = 0.32"] ;
554 -> 558 ;
559 [label="X[1] <= 0.073\nmse = 0.011\nsamples = 6\nvalue = 0.278"] ;
551 -> 559 ;
560 [label="X[2] <= 0.047\nmse = 0.012\nsamples = 3\nvalue = 0.324"] ;
559 -> 560 ;
561 [label="X[2] <= 0.046\nmse = 0.002\nsamples = 2\nvalue = 0.279"] ;
560 -> 561 ;
562 [label="mse = 0.0\nsamples = 1\nvalue = 0.316"] ;
561 -> 562 ;
563 [label="mse = 0.0\nsamples = 1\nvalue = 0.224"] ;
561 -> 563 ;
564 [label="mse = 0.0\nsamples = 1\nvalue = 0.546"] ;
560 -> 564 ;
565 [label="X[3] <= 0.31\nmse = 0.002\nsamples = 3\nvalue = 0.209"] ;
559 -> 565 ;
566 [label="mse = 0.0\nsamples = 1\nvalue = 0.138"] ;
565 -> 566 ;
567 [label="X[3] <= 0.314\nmse = 0.0\nsamples = 2\nvalue = 0.233"] ;
565 -> 567 ;
568 [label="mse = 0.0\nsamples = 1\nvalue = 0.258"] ;
567 -> 568 ;
569 [label="mse = 0.0\nsamples = 1\nvalue = 0.22"] ;
567 -> 569 ;
570 [label="X[4] <= 0.087\nmse = 0.025\nsamples = 7\nvalue = 0.491"] ;
550 -> 570 ;
571 [label="mse = 0.0\nsamples = 1\nvalue = 0.792"] ;
570 -> 571 ;
572 [label="X[3] <= 0.321\nmse = 0.017\nsamples = 6\nvalue = 0.46"] ;
570 -> 572 ;
573 [label="X[2] <= 0.047\nmse = 0.01\nsamples = 4\nvalue = 0.546"] ;
572 -> 573 ;
574 [label="X[2] <= 0.046\nmse = 0.005\nsamples = 3\nvalue = 0.486"] ;
573 -> 574 ;
575 [label="mse = 0.0\nsamples = 1\nvalue = 0.44"] ;
574 -> 575 ;
576 [label="X[1] <= 0.073\nmse = 0.005\nsamples = 2\nvalue = 0.532"] ;
574 -> 576 ;
577 [label="mse = 0.0\nsamples = 1\nvalue = 0.601"] ;
576 -> 577 ;
578 [label="mse = 0.0\nsamples = 1\nvalue = 0.462"] ;
576 -> 578 ;
579 [label="mse = -0.0\nsamples = 1\nvalue = 0.666"] ;
573 -> 579 ;
580 [label="X[4] <= 0.09\nmse = 0.001\nsamples = 2\nvalue = 0.332"] ;
572 -> 580 ;
581 [label="mse = 0.0\nsamples = 1\nvalue = 0.302"] ;
580 -> 581 ;
582 [label="mse = -0.0\nsamples = 1\nvalue = 0.363"] ;
580 -> 582 ;
583 [label="mse = -0.0\nsamples = 1\nvalue = 0.846"] ;
549 -> 583 ;
584 [label="X[4] <= 0.153\nmse = 0.028\nsamples = 15\nvalue = 0.671"] ;
442 -> 584 ;
585 [label="X[4] <= 0.132\nmse = 0.01\nsamples = 12\nvalue = 0.75"] ;
584 -> 585 ;
586 [label="X[3] <= 0.301\nmse = 0.003\nsamples = 5\nvalue = 0.666"] ;
585 -> 586 ;
587 [label="X[0] <= 0.093\nmse = 0.0\nsamples = 3\nvalue = 0.7"] ;
586 -> 587 ;
588 [label="X[2] <= 0.047\nmse = 0.0\nsamples = 2\nvalue = 0.691"] ;
587 -> 588 ;
589 [label="mse = 0.0\nsamples = 1\nvalue = 0.687"] ;
588 -> 589 ;
590 [label="mse = 0.0\nsamples = 1\nvalue = 0.698"] ;
588 -> 590 ;
591 [label="mse = -0.0\nsamples = 1\nvalue = 0.728"] ;
587 -> 591 ;
592 [label="X[1] <= 0.071\nmse = 0.001\nsamples = 2\nvalue = 0.598"] ;
586 -> 592 ;
593 [label="mse = 0.0\nsamples = 1\nvalue = 0.571"] ;
592 -> 593 ;
594 [label="mse = 0.0\nsamples = 1\nvalue = 0.625"] ;
592 -> 594 ;
595 [label="X[4] <= 0.145\nmse = 0.008\nsamples = 7\nvalue = 0.795"] ;
585 -> 595 ;
596 [label="X[0] <= 0.091\nmse = 0.006\nsamples = 4\nvalue = 0.851"] ;
595 -> 596 ;
597 [label="X[1] <= 0.072\nmse = 0.001\nsamples = 2\nvalue = 0.748"] ;
596 -> 597 ;
598 [label="mse = 0.0\nsamples = 1\nvalue = 0.782"] ;
597 -> 598 ;
599 [label="mse = 0.0\nsamples = 1\nvalue = 0.715"] ;
597 -> 599 ;
600 [label="X[5] <= 0.056\nmse = 0.0\nsamples = 2\nvalue = 0.902"] ;
596 -> 600 ;
601 [label="mse = 0.0\nsamples = 1\nvalue = 0.909"] ;
600 -> 601 ;
602 [label="mse = -0.0\nsamples = 1\nvalue = 0.895"] ;
600 -> 602 ;
603 [label="X[3] <= 0.322\nmse = 0.002\nsamples = 3\nvalue = 0.729"] ;
595 -> 603 ;
604 [label="X[1] <= 0.071\nmse = 0.0\nsamples = 2\nvalue = 0.749"] ;
603 -> 604 ;
605 [label="mse = 0.0\nsamples = 1\nvalue = 0.784"] ;
604 -> 605 ;
606 [label="mse = -0.0\nsamples = 1\nvalue = 0.737"] ;
604 -> 606 ;
607 [label="mse = -0.0\nsamples = 1\nvalue = 0.649"] ;
603 -> 607 ;
608 [label="X[3] <= 0.314\nmse = 0.013\nsamples = 3\nvalue = 0.449"] ;
584 -> 608 ;
609 [label="mse = 0.0\nsamples = 1\nvalue = 0.587"] ;
608 -> 609 ;
610 [label="X[4] <= 0.156\nmse = 0.006\nsamples = 2\nvalue = 0.38"] ;
608 -> 610 ;
611 [label="mse = 0.0\nsamples = 1\nvalue = 0.424"] ;
610 -> 611 ;
612 [label="mse = 0.0\nsamples = 1\nvalue = 0.249"] ;
610 -> 612 ;
613 [label="X[4] <= 0.089\nmse = 0.046\nsamples = 4\nvalue = 0.8"] ;
425 -> 613 ;
614 [label="mse = 0.0\nsamples = 1\nvalue = 0.474"] ;
613 -> 614 ;
615 [label="X[1] <= 0.08\nmse = 0.005\nsamples = 3\nvalue = 0.931"] ;
613 -> 615 ;
616 [label="X[1] <= 0.079\nmse = 0.0\nsamples = 2\nvalue = 0.967"] ;
615 -> 616 ;
617 [label="mse = 0.0\nsamples = 1\nvalue = 0.964"] ;
616 -> 617 ;
618 [label="mse = -0.0\nsamples = 1\nvalue = 0.975"] ;
616 -> 618 ;
619 [label="mse = -0.0\nsamples = 1\nvalue = 0.788"] ;
615 -> 619 ;
620 [label="X[5] <= 0.058\nmse = 0.034\nsamples = 73\nvalue = 0.772"] ;
2 -> 620 ;
621 [label="X[1] <= 0.083\nmse = 0.025\nsamples = 57\nvalue = 0.806"] ;
620 -> 621 ;
622 [label="X[3] <= 0.356\nmse = 0.022\nsamples = 56\nvalue = 0.812"] ;
621 -> 622 ;
623 [label="X[4] <= 0.089\nmse = 0.022\nsamples = 51\nvalue = 0.8"] ;
622 -> 623 ;
624 [label="X[4] <= 0.082\nmse = 0.043\nsamples = 15\nvalue = 0.742"] ;
623 -> 624 ;
625 [label="X[2] <= 0.042\nmse = 0.016\nsamples = 9\nvalue = 0.857"] ;
624 -> 625 ;
626 [label="X[1] <= 0.068\nmse = 0.012\nsamples = 6\nvalue = 0.908"] ;
625 -> 626 ;
627 [label="X[3] <= 0.33\nmse = 0.012\nsamples = 3\nvalue = 0.824"] ;
626 -> 627 ;
628 [label="mse = 0.0\nsamples = 1\nvalue = 0.994"] ;
627 -> 628 ;
629 [label="X[4] <= 0.078\nmse = 0.003\nsamples = 2\nvalue = 0.768"] ;
627 -> 629 ;
630 [label="mse = 0.0\nsamples = 1\nvalue = 0.807"] ;
629 -> 630 ;
631 [label="mse = 0.0\nsamples = 1\nvalue = 0.689"] ;
629 -> 631 ;
632 [label="X[4] <= 0.079\nmse = 0.001\nsamples = 3\nvalue = 0.975"] ;
626 -> 632 ;
633 [label="X[5] <= 0.022\nmse = 0.0\nsamples = 2\nvalue = 0.994"] ;
632 -> 633 ;
634 [label="mse = 0.0\nsamples = 1\nvalue = 0.997"] ;
633 -> 634 ;
635 [label="mse = -0.0\nsamples = 1\nvalue = 0.99"] ;
633 -> 635 ;
636 [label="mse = -0.0\nsamples = 1\nvalue = 0.9"] ;
632 -> 636 ;
637 [label="X[3] <= 0.33\nmse = 0.008\nsamples = 3\nvalue = 0.743"] ;
625 -> 637 ;
638 [label="mse = 0.0\nsamples = 1\nvalue = 0.829"] ;
637 -> 638 ;
639 [label="X[4] <= 0.076\nmse = 0.002\nsamples = 2\nvalue = 0.658"] ;
637 -> 639 ;
640 [label="mse = 0.0\nsamples = 1\nvalue = 0.616"] ;
639 -> 640 ;
641 [label="mse = 0.0\nsamples = 1\nvalue = 0.7"] ;
639 -> 641 ;
642 [label="X[3] <= 0.336\nmse = 0.03\nsamples = 6\nvalue = 0.554"] ;
624 -> 642 ;
643 [label="mse = 0.0\nsamples = 1\nvalue = 0.196"] ;
642 -> 643 ;
644 [label="X[3] <= 0.341\nmse = 0.013\nsamples = 5\nvalue = 0.606"] ;
642 -> 644 ;
645 [label="X[5] <= 0.025\nmse = 0.0\nsamples = 3\nvalue = 0.52"] ;
644 -> 645 ;
646 [label="mse = 0.0\nsamples = 1\nvalue = 0.54"] ;
645 -> 646 ;
647 [label="X[1] <= 0.068\nmse = 0.0\nsamples = 2\nvalue = 0.5"] ;
645 -> 647 ;
648 [label="mse = 0.0\nsamples = 1\nvalue = 0.511"] ;
647 -> 648 ;
649 [label="mse = -0.0\nsamples = 1\nvalue = 0.488"] ;
647 -> 649 ;
650 [label="X[4] <= 0.087\nmse = 0.008\nsamples = 2\nvalue = 0.72"] ;
644 -> 650 ;
651 [label="mse = 0.0\nsamples = 1\nvalue = 0.846"] ;
650 -> 651 ;
652 [label="mse = -0.0\nsamples = 1\nvalue = 0.657"] ;
650 -> 652 ;
653 [label="X[4] <= 0.137\nmse = 0.013\nsamples = 36\nvalue = 0.819"] ;
623 -> 653 ;
654 [label="X[3] <= 0.347\nmse = 0.009\nsamples = 20\nvalue = 0.855"] ;
653 -> 654 ;
655 [label="X[0] <= 0.087\nmse = 0.005\nsamples = 15\nvalue = 0.878"] ;
654 -> 655 ;
656 [label="mse = 0.0\nsamples = 1\nvalue = 0.71"] ;
655 -> 656 ;
657 [label="X[0] <= 0.094\nmse = 0.003\nsamples = 14\nvalue = 0.89"] ;
655 -> 657 ;
658 [label="X[0] <= 0.091\nmse = 0.002\nsamples = 13\nvalue = 0.883"] ;
657 -> 658 ;
659 [label="X[5] <= 0.053\nmse = 0.001\nsamples = 4\nvalue = 0.922"] ;
658 -> 659 ;
660 [label="X[3] <= 0.339\nmse = 0.0\nsamples = 3\nvalue = 0.905"] ;
659 -> 660 ;
661 [label="X[3] <= 0.337\nmse = 0.0\nsamples = 2\nvalue = 0.916"] ;
660 -> 661 ;
662 [label="mse = 0.0\nsamples = 1\nvalue = 0.907"] ;
661 -> 662 ;
663 [label="mse = 0.0\nsamples = 1\nvalue = 0.92"] ;
661 -> 663 ;
664 [label="mse = -0.0\nsamples = 1\nvalue = 0.89"] ;
660 -> 664 ;
665 [label="mse = 0.0\nsamples = 1\nvalue = 0.965"] ;
659 -> 665 ;
666 [label="X[5] <= 0.048\nmse = 0.002\nsamples = 9\nvalue = 0.868"] ;
658 -> 666 ;
667 [label="X[1] <= 0.072\nmse = 0.002\nsamples = 4\nvalue = 0.894"] ;
666 -> 667 ;
668 [label="X[2] <= 0.045\nmse = 0.001\nsamples = 2\nvalue = 0.921"] ;
667 -> 668 ;
669 [label="mse = 0.0\nsamples = 1\nvalue = 0.879"] ;
668 -> 669 ;
670 [label="mse = -0.0\nsamples = 1\nvalue = 0.949"] ;
668 -> 670 ;
671 [label="X[5] <= 0.029\nmse = 0.001\nsamples = 2\nvalue = 0.861"] ;
667 -> 671 ;
672 [label="mse = 0.0\nsamples = 1\nvalue = 0.876"] ;
671 -> 672 ;
673 [label="mse = 0.0\nsamples = 1\nvalue = 0.816"] ;
671 -> 673 ;
674 [label="X[3] <= 0.331\nmse = 0.001\nsamples = 5\nvalue = 0.845"] ;
666 -> 674 ;
675 [label="X[0] <= 0.091\nmse = 0.0\nsamples = 2\nvalue = 0.798"] ;
674 -> 675 ;
676 [label="mse = 0.0\nsamples = 1\nvalue = 0.818"] ;
675 -> 676 ;
677 [label="mse = 0.0\nsamples = 1\nvalue = 0.777"] ;
675 -> 677 ;
678 [label="X[3] <= 0.34\nmse = 0.0\nsamples = 3\nvalue = 0.856"] ;
674 -> 678 ;
679 [label="X[3] <= 0.335\nmse = 0.0\nsamples = 2\nvalue = 0.868"] ;
678 -> 679 ;
680 [label="mse = 0.0\nsamples = 1\nvalue = 0.865"] ;
679 -> 680 ;
681 [label="mse = 0.0\nsamples = 1\nvalue = 0.868"] ;
679 -> 681 ;
682 [label="mse = -0.0\nsamples = 1\nvalue = 0.823"] ;
678 -> 682 ;
683 [label="mse = 0.0\nsamples = 1\nvalue = 0.986"] ;
657 -> 683 ;
684 [label="X[4] <= 0.091\nmse = 0.013\nsamples = 5\nvalue = 0.755"] ;
654 -> 684 ;
685 [label="X[0] <= 0.093\nmse = 0.001\nsamples = 2\nvalue = 0.93"] ;
684 -> 685 ;
686 [label="mse = 0.0\nsamples = 1\nvalue = 0.962"] ;
685 -> 686 ;
687 [label="mse = 0.0\nsamples = 1\nvalue = 0.898"] ;
685 -> 687 ;
688 [label="X[1] <= 0.08\nmse = 0.001\nsamples = 3\nvalue = 0.685"] ;
684 -> 688 ;
689 [label="X[3] <= 0.352\nmse = 0.0\nsamples = 2\nvalue = 0.669"] ;
688 -> 689 ;
690 [label="mse = 0.0\nsamples = 1\nvalue = 0.667"] ;
689 -> 690 ;
691 [label="mse = -0.0\nsamples = 1\nvalue = 0.67"] ;
689 -> 691 ;
692 [label="mse = -0.0\nsamples = 1\nvalue = 0.748"] ;
688 -> 692 ;
693 [label="X[4] <= 0.141\nmse = 0.015\nsamples = 16\nvalue = 0.771"] ;
653 -> 693 ;
694 [label="X[3] <= 0.347\nmse = 0.017\nsamples = 6\nvalue = 0.701"] ;
693 -> 694 ;
695 [label="X[5] <= 0.055\nmse = 0.007\nsamples = 5\nvalue = 0.639"] ;
694 -> 695 ;
696 [label="X[3] <= 0.339\nmse = 0.0\nsamples = 2\nvalue = 0.708"] ;
695 -> 696 ;
697 [label="mse = 0.0\nsamples = 1\nvalue = 0.734"] ;
696 -> 697 ;
698 [label="mse = 0.0\nsamples = 1\nvalue = 0.701"] ;
696 -> 698 ;
699 [label="X[4] <= 0.139\nmse = 0.003\nsamples = 3\nvalue = 0.553"] ;
695 -> 699 ;
700 [label="mse = 0.0\nsamples = 1\nvalue = 0.461"] ;
699 -> 700 ;
701 [label="X[1] <= 0.073\nmse = 0.0\nsamples = 2\nvalue = 0.584"] ;
699 -> 701 ;
702 [label="mse = 0.0\nsamples = 1\nvalue = 0.56"] ;
701 -> 702 ;
703 [label="mse = 0.0\nsamples = 1\nvalue = 0.596"] ;
701 -> 703 ;
704 [label="mse = 0.0\nsamples = 1\nvalue = 0.887"] ;
694 -> 704 ;
705 [label="X[1] <= 0.069\nmse = 0.008\nsamples = 10\nvalue = 0.823"] ;
693 -> 705 ;
706 [label="mse = 0.0\nsamples = 1\nvalue = 0.554"] ;
705 -> 706 ;
707 [label="X[5] <= 0.056\nmse = 0.003\nsamples = 9\nvalue = 0.841"] ;
705 -> 707 ;
708 [label="X[0] <= 0.089\nmse = 0.002\nsamples = 2\nvalue = 0.922"] ;
707 -> 708 ;
709 [label="mse = 0.0\nsamples = 1\nvalue = 0.877"] ;
708 -> 709 ;
710 [label="mse = -0.0\nsamples = 1\nvalue = 0.966"] ;
708 -> 710 ;
711 [label="X[4] <= 0.147\nmse = 0.002\nsamples = 7\nvalue = 0.829"] ;
707 -> 711 ;
712 [label="X[2] <= 0.043\nmse = 0.001\nsamples = 5\nvalue = 0.795"] ;
711 -> 712 ;
713 [label="mse = 0.0\nsamples = 1\nvalue = 0.842"] ;
712 -> 713 ;
714 [label="X[1] <= 0.071\nmse = 0.0\nsamples = 4\nvalue = 0.776"] ;
712 -> 714 ;
715 [label="mse = 0.0\nsamples = 1\nvalue = 0.797"] ;
714 -> 715 ;
716 [label="X[1] <= 0.072\nmse = 0.0\nsamples = 3\nvalue = 0.771"] ;
714 -> 716 ;
717 [label="X[3] <= 0.339\nmse = 0.0\nsamples = 2\nvalue = 0.768"] ;
716 -> 717 ;
718 [label="mse = 0.0\nsamples = 1\nvalue = 0.771"] ;
717 -> 718 ;
719 [label="mse = -0.0\nsamples = 1\nvalue = 0.767"] ;
717 -> 719 ;
720 [label="mse = -0.0\nsamples = 1\nvalue = 0.778"] ;
716 -> 720 ;
721 [label="X[0] <= 0.091\nmse = 0.0\nsamples = 2\nvalue = 0.869"] ;
711 -> 721 ;
722 [label="mse = 0.0\nsamples = 1\nvalue = 0.883"] ;
721 -> 722 ;
723 [label="mse = -0.0\nsamples = 1\nvalue = 0.862"] ;
721 -> 723 ;
724 [label="X[5] <= 0.056\nmse = 0.006\nsamples = 5\nvalue = 0.954"] ;
622 -> 724 ;
725 [label="X[3] <= 0.366\nmse = 0.0\nsamples = 4\nvalue = 0.985"] ;
724 -> 725 ;
726 [label="X[2] <= 0.045\nmse = 0.0\nsamples = 2\nvalue = 0.976"] ;
725 -> 726 ;
727 [label="mse = 0.0\nsamples = 1\nvalue = 0.975"] ;
726 -> 727 ;
728 [label="mse = 0.0\nsamples = 1\nvalue = 0.977"] ;
726 -> 728 ;
729 [label="X[1] <= 0.069\nmse = 0.0\nsamples = 2\nvalue = 0.995"] ;
725 -> 729 ;
730 [label="mse = 0.0\nsamples = 1\nvalue = 0.998"] ;
729 -> 730 ;
731 [label="mse = 0.0\nsamples = 1\nvalue = 0.993"] ;
729 -> 731 ;
732 [label="mse = -0.0\nsamples = 1\nvalue = 0.764"] ;
724 -> 732 ;
733 [label="mse = 0.0\nsamples = 1\nvalue = 0.288"] ;
621 -> 733 ;
734 [label="X[0] <= 0.091\nmse = 0.048\nsamples = 16\nvalue = 0.634"] ;
620 -> 734 ;
735 [label="X[4] <= 0.16\nmse = 0.038\nsamples = 13\nvalue = 0.576"] ;
734 -> 735 ;
736 [label="X[4] <= 0.156\nmse = 0.028\nsamples = 12\nvalue = 0.538"] ;
735 -> 736 ;
737 [label="X[2] <= 0.044\nmse = 0.024\nsamples = 10\nvalue = 0.567"] ;
736 -> 737 ;
738 [label="X[5] <= 0.061\nmse = 0.016\nsamples = 4\nvalue = 0.68"] ;
737 -> 738 ;
739 [label="X[0] <= 0.088\nmse = 0.011\nsamples = 2\nvalue = 0.781"] ;
738 -> 739 ;
740 [label="mse = 0.0\nsamples = 1\nvalue = 0.926"] ;
739 -> 740 ;
741 [label="mse = 0.0\nsamples = 1\nvalue = 0.708"] ;
739 -> 741 ;
742 [label="X[4] <= 0.155\nmse = 0.001\nsamples = 2\nvalue = 0.58"] ;
738 -> 742 ;
743 [label="mse = 0.0\nsamples = 1\nvalue = 0.597"] ;
742 -> 743 ;
744 [label="mse = 0.0\nsamples = 1\nvalue = 0.546"] ;
742 -> 744 ;
745 [label="X[4] <= 0.153\nmse = 0.016\nsamples = 6\nvalue = 0.491"] ;
737 -> 745 ;
746 [label="X[3] <= 0.333\nmse = 0.009\nsamples = 4\nvalue = 0.559"] ;
745 -> 746 ;
747 [label="mse = 0.0\nsamples = 1\nvalue = 0.754"] ;
746 -> 747 ;
748 [label="X[4] <= 0.148\nmse = 0.001\nsamples = 3\nvalue = 0.52"] ;
746 -> 748 ;
749 [label="mse = 0.0\nsamples = 1\nvalue = 0.454"] ;
748 -> 749 ;
750 [label="X[4] <= 0.152\nmse = 0.0\nsamples = 2\nvalue = 0.536"] ;
748 -> 750 ;
751 [label="mse = 0.0\nsamples = 1\nvalue = 0.55"] ;
750 -> 751 ;
752 [label="mse = 0.0\nsamples = 1\nvalue = 0.532"] ;
750 -> 752 ;
753 [label="X[2] <= 0.045\nmse = 0.003\nsamples = 2\nvalue = 0.354"] ;
745 -> 753 ;
754 [label="mse = 0.0\nsamples = 1\nvalue = 0.316"] ;
753 -> 754 ;
755 [label="mse = 0.0\nsamples = 1\nvalue = 0.431"] ;
753 -> 755 ;
756 [label="X[4] <= 0.157\nmse = 0.004\nsamples = 2\nvalue = 0.325"] ;
736 -> 756 ;
757 [label="mse = 0.0\nsamples = 1\nvalue = 0.259"] ;
756 -> 757 ;
758 [label="mse = 0.0\nsamples = 1\nvalue = 0.391"] ;
756 -> 758 ;
759 [label="mse = 0.0\nsamples = 1\nvalue = 0.902"] ;
735 -> 759 ;
760 [label="X[4] <= 0.152\nmse = 0.009\nsamples = 3\nvalue = 0.905"] ;
734 -> 760 ;
761 [label="mse = 0.0\nsamples = 1\nvalue = 0.742"] ;
760 -> 761 ;
762 [label="X[4] <= 0.154\nmse = 0.0\nsamples = 2\nvalue = 0.96"] ;
760 -> 762 ;
763 [label="mse = 0.0\nsamples = 1\nvalue = 0.965"] ;
762 -> 763 ;
764 [label="mse = -0.0\nsamples = 1\nvalue = 0.957"] ;
762 -> 764 ;
765 [label="X[0] <= 0.091\nmse = 0.062\nsamples = 96\nvalue = 0.469"] ;
1 -> 765 ;
766 [label="X[5] <= 0.078\nmse = 0.056\nsamples = 76\nvalue = 0.42"] ;
765 -> 766 ;
767 [label="X[4] <= 0.183\nmse = 0.054\nsamples = 67\nvalue = 0.452"] ;
766 -> 767 ;
768 [label="X[2] <= 0.046\nmse = 0.049\nsamples = 64\nvalue = 0.436"] ;
767 -> 768 ;
769 [label="X[4] <= 0.171\nmse = 0.056\nsamples = 26\nvalue = 0.517"] ;
768 -> 769 ;
770 [label="X[5] <= 0.067\nmse = 0.045\nsamples = 23\nvalue = 0.477"] ;
769 -> 770 ;
771 [label="X[4] <= 0.162\nmse = 0.046\nsamples = 13\nvalue = 0.547"] ;
770 -> 771 ;
772 [label="X[3] <= 0.355\nmse = 0.021\nsamples = 9\nvalue = 0.456"] ;
771 -> 772 ;
773 [label="X[2] <= 0.045\nmse = 0.013\nsamples = 8\nvalue = 0.482"] ;
772 -> 773 ;
774 [label="X[3] <= 0.315\nmse = 0.006\nsamples = 7\nvalue = 0.457"] ;
773 -> 774 ;
775 [label="mse = 0.0\nsamples = 1\nvalue = 0.282"] ;
774 -> 775 ;
776 [label="X[3] <= 0.35\nmse = 0.003\nsamples = 6\nvalue = 0.473"] ;
774 -> 776 ;
777 [label="X[3] <= 0.324\nmse = 0.002\nsamples = 5\nvalue = 0.499"] ;
776 -> 777 ;
778 [label="X[4] <= 0.158\nmse = 0.002\nsamples = 2\nvalue = 0.556"] ;
777 -> 778 ;
779 [label="mse = 0.0\nsamples = 1\nvalue = 0.51"] ;
778 -> 779 ;
780 [label="mse = 0.0\nsamples = 1\nvalue = 0.601"] ;
778 -> 780 ;
781 [label="X[1] <= 0.071\nmse = 0.0\nsamples = 3\nvalue = 0.48"] ;
777 -> 781 ;
782 [label="mse = 0.0\nsamples = 1\nvalue = 0.452"] ;
781 -> 782 ;
783 [label="X[1] <= 0.072\nmse = 0.0\nsamples = 2\nvalue = 0.493"] ;
781 -> 783 ;
784 [label="mse = 0.0\nsamples = 1\nvalue = 0.494"] ;
783 -> 784 ;
785 [label="mse = 0.0\nsamples = 1\nvalue = 0.491"] ;
783 -> 785 ;
786 [label="mse = 0.0\nsamples = 1\nvalue = 0.406"] ;
776 -> 786 ;
787 [label="mse = 0.0\nsamples = 1\nvalue = 0.781"] ;
773 -> 787 ;
788 [label="mse = 0.0\nsamples = 1\nvalue = 0.118"] ;
772 -> 788 ;
789 [label="X[5] <= 0.065\nmse = 0.031\nsamples = 4\nvalue = 0.799"] ;
771 -> 789 ;
790 [label="mse = 0.0\nsamples = 1\nvalue = 0.463"] ;
789 -> 790 ;
791 [label="X[0] <= 0.087\nmse = 0.004\nsamples = 3\nvalue = 0.884"] ;
789 -> 791 ;
792 [label="mse = 0.0\nsamples = 1\nvalue = 0.975"] ;
791 -> 792 ;
793 [label="X[0] <= 0.089\nmse = 0.001\nsamples = 2\nvalue = 0.853"] ;
791 -> 793 ;
794 [label="mse = 0.0\nsamples = 1\nvalue = 0.831"] ;
793 -> 794 ;
795 [label="mse = -0.0\nsamples = 1\nvalue = 0.897"] ;
793 -> 795 ;
796 [label="X[3] <= 0.356\nmse = 0.03\nsamples = 10\nvalue = 0.39"] ;
770 -> 796 ;
797 [label="X[0] <= 0.091\nmse = 0.013\nsamples = 7\nvalue = 0.288"] ;
796 -> 797 ;
798 [label="X[0] <= 0.09\nmse = 0.004\nsamples = 6\nvalue = 0.255"] ;
797 -> 798 ;
799 [label="X[0] <= 0.087\nmse = 0.003\nsamples = 5\nvalue = 0.277"] ;
798 -> 799 ;
800 [label="mse = 0.0\nsamples = 1\nvalue = 0.16"] ;
799 -> 800 ;
801 [label="X[0] <= 0.089\nmse = 0.001\nsamples = 4\nvalue = 0.301"] ;
799 -> 801 ;
802 [label="X[4] <= 0.167\nmse = 0.0\nsamples = 3\nvalue = 0.288"] ;
801 -> 802 ;
803 [label="X[1] <= 0.072\nmse = 0.0\nsamples = 2\nvalue = 0.297"] ;
802 -> 803 ;
804 [label="mse = 0.0\nsamples = 1\nvalue = 0.298"] ;
803 -> 804 ;
805 [label="mse = 0.0\nsamples = 1\nvalue = 0.295"] ;
803 -> 805 ;
806 [label="mse = -0.0\nsamples = 1\nvalue = 0.26"] ;
802 -> 806 ;
807 [label="mse = -0.0\nsamples = 1\nvalue = 0.353"] ;
801 -> 807 ;
808 [label="mse = 0.0\nsamples = 1\nvalue = 0.187"] ;
798 -> 808 ;
809 [label="mse = 0.0\nsamples = 1\nvalue = 0.558"] ;
797 -> 809 ;
810 [label="X[3] <= 0.374\nmse = 0.017\nsamples = 3\nvalue = 0.542"] ;
796 -> 810 ;
811 [label="mse = 0.0\nsamples = 1\nvalue = 0.653"] ;
810 -> 811 ;
812 [label="X[3] <= 0.395\nmse = 0.008\nsamples = 2\nvalue = 0.431"] ;
810 -> 812 ;
813 [label="mse = 0.0\nsamples = 1\nvalue = 0.301"] ;
812 -> 813 ;
814 [label="mse = 0.0\nsamples = 1\nvalue = 0.496"] ;
812 -> 814 ;
815 [label="X[4] <= 0.172\nmse = 0.021\nsamples = 3\nvalue = 0.857"] ;
769 -> 815 ;
816 [label="mse = 0.0\nsamples = 1\nvalue = 0.996"] ;
815 -> 816 ;
817 [label="X[5] <= 0.068\nmse = 0.003\nsamples = 2\nvalue = 0.718"] ;
815 -> 817 ;
818 [label="mse = 0.0\nsamples = 1\nvalue = 0.664"] ;
817 -> 818 ;
819 [label="mse = 0.0\nsamples = 1\nvalue = 0.773"] ;
817 -> 819 ;
820 [label="X[5] <= 0.076\nmse = 0.039\nsamples = 38\nvalue = 0.388"] ;
768 -> 820 ;
821 [label="X[5] <= 0.068\nmse = 0.035\nsamples = 37\nvalue = 0.38"] ;
820 -> 821 ;
822 [label="X[5] <= 0.065\nmse = 0.04\nsamples = 6\nvalue = 0.558"] ;
821 -> 822 ;
823 [label="X[4] <= 0.159\nmse = 0.021\nsamples = 2\nvalue = 0.302"] ;
822 -> 823 ;
824 [label="mse = 0.0\nsamples = 1\nvalue = 0.448"] ;
823 -> 824 ;
825 [label="mse = 0.0\nsamples = 1\nvalue = 0.155"] ;
823 -> 825 ;
826 [label="X[4] <= 0.168\nmse = 0.011\nsamples = 4\nvalue = 0.66"] ;
822 -> 826 ;
827 [label="X[3] <= 0.348\nmse = 0.001\nsamples = 3\nvalue = 0.71"] ;
826 -> 827 ;
828 [label="mse = 0.0\nsamples = 1\nvalue = 0.768"] ;
827 -> 828 ;
829 [label="X[0] <= 0.091\nmse = 0.0\nsamples = 2\nvalue = 0.69"] ;
827 -> 829 ;
830 [label="mse = 0.0\nsamples = 1\nvalue = 0.698"] ;
829 -> 830 ;
831 [label="mse = 0.0\nsamples = 1\nvalue = 0.675"] ;
829 -> 831 ;
832 [label="mse = -0.0\nsamples = 1\nvalue = 0.461"] ;
826 -> 832 ;
833 [label="X[1] <= 0.072\nmse = 0.03\nsamples = 31\nvalue = 0.357"] ;
821 -> 833 ;
834 [label="X[3] <= 0.294\nmse = 0.019\nsamples = 4\nvalue = 0.491"] ;
833 -> 834 ;
835 [label="X[3] <= 0.288\nmse = 0.002\nsamples = 2\nvalue = 0.597"] ;
834 -> 835 ;
836 [label="mse = 0.0\nsamples = 1\nvalue = 0.66"] ;
835 -> 836 ;
837 [label="mse = 0.0\nsamples = 1\nvalue = 0.572"] ;
835 -> 837 ;
838 [label="X[4] <= 0.154\nmse = 0.005\nsamples = 2\nvalue = 0.343"] ;
834 -> 838 ;
839 [label="mse = 0.0\nsamples = 1\nvalue = 0.285"] ;
838 -> 839 ;
840 [label="mse = 0.0\nsamples = 1\nvalue = 0.43"] ;
838 -> 840 ;
841 [label="X[4] <= 0.166\nmse = 0.027\nsamples = 27\nvalue = 0.32"] ;
833 -> 841 ;
842 [label="X[5] <= 0.071\nmse = 0.002\nsamples = 3\nvalue = 0.185"] ;
841 -> 842 ;
843 [label="X[4] <= 0.156\nmse = 0.0\nsamples = 2\nvalue = 0.169"] ;
842 -> 843 ;
844 [label="mse = 0.0\nsamples = 1\nvalue = 0.188"] ;
843 -> 844 ;
845 [label="mse = 0.0\nsamples = 1\nvalue = 0.151"] ;
843 -> 845 ;
846 [label="mse = 0.0\nsamples = 1\nvalue = 0.276"] ;
842 -> 846 ;
847 [label="X[0] <= 0.091\nmse = 0.027\nsamples = 24\nvalue = 0.346"] ;
841 -> 847 ;
848 [label="X[4] <= 0.172\nmse = 0.01\nsamples = 18\nvalue = 0.31"] ;
847 -> 848 ;
849 [label="X[5] <= 0.071\nmse = 0.011\nsamples = 7\nvalue = 0.368"] ;
848 -> 849 ;
850 [label="X[5] <= 0.069\nmse = 0.003\nsamples = 4\nvalue = 0.33"] ;
849 -> 850 ;
851 [label="mse = 0.0\nsamples = 1\nvalue = 0.269"] ;
850 -> 851 ;
852 [label="X[4] <= 0.17\nmse = 0.001\nsamples = 3\nvalue = 0.366"] ;
850 -> 852 ;
853 [label="mse = 0.0\nsamples = 1\nvalue = 0.315"] ;
852 -> 853 ;
854 [label="X[3] <= 0.347\nmse = 0.0\nsamples = 2\nvalue = 0.379"] ;
852 -> 854 ;
855 [label="mse = 0.0\nsamples = 1\nvalue = 0.376"] ;
854 -> 855 ;
856 [label="mse = -0.0\nsamples = 1\nvalue = 0.386"] ;
854 -> 856 ;
857 [label="X[2] <= 0.048\nmse = 0.018\nsamples = 3\nvalue = 0.471"] ;
849 -> 857 ;
858 [label="X[3] <= 0.35\nmse = 0.0\nsamples = 2\nvalue = 0.564"] ;
857 -> 858 ;
859 [label="mse = 0.0\nsamples = 1\nvalue = 0.545"] ;
858 -> 859 ;
860 [label="mse = -0.0\nsamples = 1\nvalue = 0.583"] ;
858 -> 860 ;
861 [label="mse = 0.0\nsamples = 1\nvalue = 0.285"] ;
857 -> 861 ;
862 [label="X[4] <= 0.181\nmse = 0.007\nsamples = 11\nvalue = 0.273"] ;
848 -> 862 ;
863 [label="X[1] <= 0.079\nmse = 0.003\nsamples = 9\nvalue = 0.244"] ;
862 -> 863 ;
864 [label="X[2] <= 0.047\nmse = 0.002\nsamples = 7\nvalue = 0.225"] ;
863 -> 864 ;
865 [label="X[3] <= 0.399\nmse = 0.0\nsamples = 5\nvalue = 0.249"] ;
864 -> 865 ;
866 [label="X[3] <= 0.39\nmse = 0.0\nsamples = 4\nvalue = 0.235"] ;
865 -> 866 ;
867 [label="X[2] <= 0.046\nmse = 0.0\nsamples = 3\nvalue = 0.233"] ;
866 -> 867 ;
868 [label="mse = 0.0\nsamples = 1\nvalue = 0.231"] ;
867 -> 868 ;
869 [label="X[4] <= 0.18\nmse = 0.0\nsamples = 2\nvalue = 0.236"] ;
867 -> 869 ;
870 [label="mse = 0.0\nsamples = 1\nvalue = 0.237"] ;
869 -> 870 ;
871 [label="mse = 0.0\nsamples = 1\nvalue = 0.234"] ;
869 -> 871 ;
872 [label="mse = 0.0\nsamples = 1\nvalue = 0.244"] ;
866 -> 872 ;
873 [label="mse = -0.0\nsamples = 1\nvalue = 0.272"] ;
865 -> 873 ;
874 [label="X[5] <= 0.074\nmse = 0.001\nsamples = 2\nvalue = 0.162"] ;
864 -> 874 ;
875 [label="mse = 0.0\nsamples = 1\nvalue = 0.183"] ;
874 -> 875 ;
876 [label="mse = -0.0\nsamples = 1\nvalue = 0.119"] ;
874 -> 876 ;
877 [label="X[0] <= 0.09\nmse = 0.001\nsamples = 2\nvalue = 0.314"] ;
863 -> 877 ;
878 [label="mse = 0.0\nsamples = 1\nvalue = 0.293"] ;
877 -> 878 ;
879 [label="mse = 0.0\nsamples = 1\nvalue = 0.356"] ;
877 -> 879 ;
880 [label="X[0] <= 0.09\nmse = 0.002\nsamples = 2\nvalue = 0.405"] ;
862 -> 880 ;
881 [label="mse = 0.0\nsamples = 1\nvalue = 0.342"] ;
880 -> 881 ;
882 [label="mse = 0.0\nsamples = 1\nvalue = 0.436"] ;
880 -> 882 ;
883 [label="X[5] <= 0.069\nmse = 0.067\nsamples = 6\nvalue = 0.47"] ;
847 -> 883 ;
884 [label="mse = 0.0\nsamples = 1\nvalue = 0.972"] ;
883 -> 884 ;
885 [label="X[5] <= 0.073\nmse = 0.036\nsamples = 5\nvalue = 0.399"] ;
883 -> 885 ;
886 [label="X[5] <= 0.071\nmse = 0.005\nsamples = 4\nvalue = 0.327"] ;
885 -> 886 ;
887 [label="X[3] <= 0.346\nmse = 0.0\nsamples = 2\nvalue = 0.362"] ;
886 -> 887 ;
888 [label="mse = 0.0\nsamples = 1\nvalue = 0.355"] ;
887 -> 888 ;
889 [label="mse = 0.0\nsamples = 1\nvalue = 0.369"] ;
887 -> 889 ;
890 [label="X[2] <= 0.047\nmse = 0.007\nsamples = 2\nvalue = 0.256"] ;
886 -> 890 ;
891 [label="mse = 0.0\nsamples = 1\nvalue = 0.171"] ;
890 -> 891 ;
892 [label="mse = 0.0\nsamples = 1\nvalue = 0.341"] ;
890 -> 892 ;
893 [label="mse = 0.0\nsamples = 1\nvalue = 0.832"] ;
885 -> 893 ;
894 [label="mse = 0.0\nsamples = 1\nvalue = 0.881"] ;
820 -> 894 ;
895 [label="X[1] <= 0.073\nmse = 0.012\nsamples = 3\nvalue = 0.854"] ;
767 -> 895 ;
896 [label="mse = 0.0\nsamples = 1\nvalue = 0.688"] ;
895 -> 896 ;
897 [label="X[0] <= 0.089\nmse = 0.004\nsamples = 2\nvalue = 0.91"] ;
895 -> 897 ;
898 [label="mse = 0.0\nsamples = 1\nvalue = 1.0"] ;
897 -> 898 ;
899 [label="mse = 0.0\nsamples = 1\nvalue = 0.865"] ;
897 -> 899 ;
900 [label="X[4] <= 0.182\nmse = 0.008\nsamples = 9\nvalue = 0.191"] ;
766 -> 900 ;
901 [label="X[5] <= 0.084\nmse = 0.003\nsamples = 3\nvalue = 0.291"] ;
900 -> 901 ;
902 [label="X[0] <= 0.091\nmse = 0.0\nsamples = 2\nvalue = 0.318"] ;
901 -> 902 ;
903 [label="mse = 0.0\nsamples = 1\nvalue = 0.326"] ;
902 -> 903 ;
904 [label="mse = -0.0\nsamples = 1\nvalue = 0.31"] ;
902 -> 904 ;
905 [label="mse = 0.0\nsamples = 1\nvalue = 0.184"] ;
901 -> 905 ;
906 [label="X[1] <= 0.076\nmse = 0.003\nsamples = 6\nvalue = 0.141"] ;
900 -> 906 ;
907 [label="X[3] <= 0.313\nmse = 0.001\nsamples = 3\nvalue = 0.097"] ;
906 -> 907 ;
908 [label="mse = 0.0\nsamples = 1\nvalue = 0.065"] ;
907 -> 908 ;
909 [label="X[5] <= 0.08\nmse = 0.0\nsamples = 2\nvalue = 0.119"] ;
907 -> 909 ;
910 [label="mse = 0.0\nsamples = 1\nvalue = 0.114"] ;
909 -> 910 ;
911 [label="mse = -0.0\nsamples = 1\nvalue = 0.121"] ;
909 -> 911 ;
912 [label="X[3] <= 0.366\nmse = 0.0\nsamples = 3\nvalue = 0.186"] ;
906 -> 912 ;
913 [label="X[0] <= 0.09\nmse = 0.0\nsamples = 2\nvalue = 0.201"] ;
912 -> 913 ;
914 [label="mse = 0.0\nsamples = 1\nvalue = 0.184"] ;
913 -> 914 ;
915 [label="mse = 0.0\nsamples = 1\nvalue = 0.21"] ;
913 -> 915 ;
916 [label="mse = -0.0\nsamples = 1\nvalue = 0.162"] ;
912 -> 916 ;
917 [label="X[2] <= 0.049\nmse = 0.047\nsamples = 20\nvalue = 0.645"] ;
765 -> 917 ;
918 [label="X[4] <= 0.176\nmse = 0.009\nsamples = 9\nvalue = 0.831"] ;
917 -> 918 ;
919 [label="X[3] <= 0.378\nmse = 0.004\nsamples = 7\nvalue = 0.793"] ;
918 -> 919 ;
920 [label="X[1] <= 0.076\nmse = 0.002\nsamples = 6\nvalue = 0.83"] ;
919 -> 920 ;
921 [label="X[2] <= 0.047\nmse = 0.001\nsamples = 2\nvalue = 0.756"] ;
920 -> 921 ;
922 [label="mse = 0.0\nsamples = 1\nvalue = 0.786"] ;
921 -> 922 ;
923 [label="mse = 0.0\nsamples = 1\nvalue = 0.727"] ;
921 -> 923 ;
924 [label="X[4] <= 0.163\nmse = 0.0\nsamples = 4\nvalue = 0.855"] ;
920 -> 924 ;
925 [label="mse = 0.0\nsamples = 1\nvalue = 0.826"] ;
924 -> 925 ;
926 [label="X[0] <= 0.093\nmse = 0.0\nsamples = 3\nvalue = 0.861"] ;
924 -> 926 ;
927 [label="mse = 0.0\nsamples = 1\nvalue = 0.878"] ;
926 -> 927 ;
928 [label="X[3] <= 0.344\nmse = 0.0\nsamples = 2\nvalue = 0.857"] ;
926 -> 928 ;
929 [label="mse = 0.0\nsamples = 1\nvalue = 0.853"] ;
928 -> 929 ;
930 [label="mse = 0.0\nsamples = 1\nvalue = 0.858"] ;
928 -> 930 ;
931 [label="mse = -0.0\nsamples = 1\nvalue = 0.717"] ;
919 -> 931 ;
932 [label="X[0] <= 0.093\nmse = 0.0\nsamples = 2\nvalue = 0.985"] ;
918 -> 932 ;
933 [label="mse = 0.0\nsamples = 1\nvalue = 0.998"] ;
932 -> 933 ;
934 [label="mse = 0.0\nsamples = 1\nvalue = 0.978"] ;
932 -> 934 ;
935 [label="X[4] <= 0.161\nmse = 0.027\nsamples = 11\nvalue = 0.498"] ;
917 -> 935 ;
936 [label="X[3] <= 0.333\nmse = 0.001\nsamples = 4\nvalue = 0.75"] ;
935 -> 936 ;
937 [label="X[2] <= 0.05\nmse = 0.0\nsamples = 3\nvalue = 0.768"] ;
936 -> 937 ;
938 [label="mse = 0.0\nsamples = 1\nvalue = 0.786"] ;
937 -> 938 ;
939 [label="X[2] <= 0.052\nmse = 0.0\nsamples = 2\nvalue = 0.76"] ;
937 -> 939 ;
940 [label="mse = 0.0\nsamples = 1\nvalue = 0.761"] ;
939 -> 940 ;
941 [label="mse = -0.0\nsamples = 1\nvalue = 0.758"] ;
939 -> 941 ;
942 [label="mse = 0.0\nsamples = 1\nvalue = 0.696"] ;
936 -> 942 ;
943 [label="X[0] <= 0.094\nmse = 0.013\nsamples = 7\nvalue = 0.431"] ;
935 -> 943 ;
944 [label="X[4] <= 0.17\nmse = 0.006\nsamples = 6\nvalue = 0.464"] ;
943 -> 944 ;
945 [label="X[3] <= 0.318\nmse = 0.002\nsamples = 4\nvalue = 0.406"] ;
944 -> 945 ;
946 [label="X[3] <= 0.309\nmse = 0.0\nsamples = 2\nvalue = 0.469"] ;
945 -> 946 ;
947 [label="mse = 0.0\nsamples = 1\nvalue = 0.472"] ;
946 -> 947 ;
948 [label="mse = 0.0\nsamples = 1\nvalue = 0.466"] ;
946 -> 948 ;
949 [label="X[5] <= 0.073\nmse = 0.0\nsamples = 2\nvalue = 0.385"] ;
945 -> 949 ;
950 [label="mse = 0.0\nsamples = 1\nvalue = 0.358"] ;
949 -> 950 ;
951 [label="mse = -0.0\nsamples = 1\nvalue = 0.399"] ;
949 -> 951 ;
952 [label="X[4] <= 0.172\nmse = 0.0\nsamples = 2\nvalue = 0.557"] ;
944 -> 952 ;
953 [label="mse = 0.0\nsamples = 1\nvalue = 0.565"] ;
952 -> 953 ;
954 [label="mse = 0.0\nsamples = 1\nvalue = 0.544"] ;
952 -> 954 ;
955 [label="mse = -0.0\nsamples = 1\nvalue = 0.215"] ;
943 -> 955 ;
956 [label="X[2] <= 0.078\nmse = 0.047\nsamples = 235\nvalue = 0.261"] ;
0 -> 956 [labeldistance=2.5, labelangle=-45, headlabel="False"] ;
957 [label="X[5] <= 0.062\nmse = 0.041\nsamples = 133\nvalue = 0.37"] ;
956 -> 957 ;
958 [label="X[4] <= 0.087\nmse = 0.033\nsamples = 90\nvalue = 0.436"] ;
957 -> 958 ;
959 [label="X[3] <= 0.195\nmse = 0.031\nsamples = 43\nvalue = 0.496"] ;
958 -> 959 ;
960 [label="X[1] <= 0.077\nmse = 0.017\nsamples = 12\nvalue = 0.345"] ;
959 -> 960 ;
961 [label="mse = 0.0\nsamples = 1\nvalue = 0.0"] ;
960 -> 961 ;
962 [label="X[5] <= 0.024\nmse = 0.011\nsamples = 11\nvalue = 0.363"] ;
960 -> 962 ;
963 [label="X[3] <= 0.175\nmse = 0.011\nsamples = 5\nvalue = 0.413"] ;
962 -> 963 ;
964 [label="X[2] <= 0.071\nmse = 0.004\nsamples = 4\nvalue = 0.384"] ;
963 -> 964 ;
965 [label="X[5] <= 0.017\nmse = 0.0\nsamples = 2\nvalue = 0.448"] ;
964 -> 965 ;
966 [label="mse = 0.0\nsamples = 1\nvalue = 0.481"] ;
965 -> 966 ;
967 [label="mse = 0.0\nsamples = 1\nvalue = 0.437"] ;
965 -> 967 ;
968 [label="X[1] <= 0.093\nmse = 0.0\nsamples = 2\nvalue = 0.332"] ;
964 -> 968 ;
969 [label="mse = 0.0\nsamples = 1\nvalue = 0.349"] ;
968 -> 969 ;
970 [label="mse = -0.0\nsamples = 1\nvalue = 0.307"] ;
968 -> 970 ;
971 [label="mse = -0.0\nsamples = 1\nvalue = 0.68"] ;
963 -> 971 ;
972 [label="X[3] <= 0.174\nmse = 0.005\nsamples = 6\nvalue = 0.307"] ;
962 -> 972 ;
973 [label="X[2] <= 0.071\nmse = 0.001\nsamples = 3\nvalue = 0.219"] ;
972 -> 973 ;
974 [label="X[1] <= 0.087\nmse = 0.0\nsamples = 2\nvalue = 0.202"] ;
973 -> 974 ;
975 [label="mse = 0.0\nsamples = 1\nvalue = 0.208"] ;
974 -> 975 ;
976 [label="mse = -0.0\nsamples = 1\nvalue = 0.197"] ;
974 -> 976 ;
977 [label="mse = 0.0\nsamples = 1\nvalue = 0.252"] ;
973 -> 977 ;
978 [label="X[2] <= 0.069\nmse = 0.001\nsamples = 3\nvalue = 0.351"] ;
972 -> 978 ;
979 [label="X[3] <= 0.183\nmse = 0.0\nsamples = 2\nvalue = 0.336"] ;
978 -> 979 ;
980 [label="mse = 0.0\nsamples = 1\nvalue = 0.318"] ;
979 -> 980 ;
981 [label="mse = -0.0\nsamples = 1\nvalue = 0.348"] ;
979 -> 981 ;
982 [label="mse = 0.0\nsamples = 1\nvalue = 0.426"] ;
978 -> 982 ;
983 [label="X[3] <= 0.231\nmse = 0.024\nsamples = 31\nvalue = 0.554"] ;
959 -> 983 ;
984 [label="X[4] <= 0.063\nmse = 0.016\nsamples = 21\nvalue = 0.503"] ;
983 -> 984 ;
985 [label="X[2] <= 0.073\nmse = 0.007\nsamples = 6\nvalue = 0.641"] ;
984 -> 985 ;
986 [label="X[1] <= 0.09\nmse = 0.005\nsamples = 4\nvalue = 0.683"] ;
985 -> 986 ;
987 [label="X[5] <= 0.015\nmse = 0.002\nsamples = 3\nvalue = 0.62"] ;
986 -> 987 ;
988 [label="mse = 0.0\nsamples = 1\nvalue = 0.673"] ;
987 -> 988 ;
989 [label="X[3] <= 0.203\nmse = 0.0\nsamples = 2\nvalue = 0.594"] ;
987 -> 989 ;
990 [label="mse = 0.0\nsamples = 1\nvalue = 0.578"] ;
989 -> 990 ;
991 [label="mse = 0.0\nsamples = 1\nvalue = 0.61"] ;
989 -> 991 ;
992 [label="mse = 0.0\nsamples = 1\nvalue = 0.745"] ;
986 -> 992 ;
993 [label="X[0] <= 0.105\nmse = 0.0\nsamples = 2\nvalue = 0.557"] ;
985 -> 993 ;
994 [label="mse = 0.0\nsamples = 1\nvalue = 0.553"] ;
993 -> 994 ;
995 [label="mse = 0.0\nsamples = 1\nvalue = 0.564"] ;
993 -> 995 ;
996 [label="X[4] <= 0.072\nmse = 0.011\nsamples = 15\nvalue = 0.458"] ;
984 -> 996 ;
997 [label="X[4] <= 0.066\nmse = 0.009\nsamples = 5\nvalue = 0.384"] ;
996 -> 997 ;
998 [label="X[1] <= 0.075\nmse = 0.001\nsamples = 2\nvalue = 0.49"] ;
997 -> 998 ;
999 [label="mse = 0.0\nsamples = 1\nvalue = 0.47"] ;
998 -> 999 ;
1000 [label="mse = 0.0\nsamples = 1\nvalue = 0.551"] ;
998 -> 1000 ;
1001 [label="X[3] <= 0.215\nmse = 0.001\nsamples = 3\nvalue = 0.312"] ;
997 -> 1001 ;
1002 [label="X[5] <= 0.028\nmse = 0.0\nsamples = 2\nvalue = 0.298"] ;
1001 -> 1002 ;
1003 [label="mse = 0.0\nsamples = 1\nvalue = 0.281"] ;
1002 -> 1003 ;
1004 [label="mse = 0.0\nsamples = 1\nvalue = 0.323"] ;
1002 -> 1004 ;
1005 [label="mse = -0.0\nsamples = 1\nvalue = 0.385"] ;
1001 -> 1005 ;
1006 [label="X[5] <= 0.036\nmse = 0.008\nsamples = 10\nvalue = 0.5"] ;
996 -> 1006 ;
1007 [label="X[4] <= 0.073\nmse = 0.006\nsamples = 9\nvalue = 0.477"] ;
1006 -> 1007 ;
1008 [label="mse = 0.0\nsamples = 1\nvalue = 0.593"] ;
1007 -> 1008 ;
1009 [label="X[2] <= 0.064\nmse = 0.006\nsamples = 8\nvalue = 0.468"] ;
1007 -> 1009 ;
1010 [label="X[1] <= 0.082\nmse = 0.003\nsamples = 5\nvalue = 0.45"] ;
1009 -> 1010 ;
1011 [label="X[4] <= 0.075\nmse = 0.001\nsamples = 4\nvalue = 0.472"] ;
1010 -> 1011 ;
1012 [label="mse = 0.0\nsamples = 1\nvalue = 0.384"] ;
1011 -> 1012 ;
1013 [label="X[4] <= 0.084\nmse = 0.0\nsamples = 3\nvalue = 0.485"] ;
1011 -> 1013 ;
1014 [label="X[3] <= 0.215\nmse = 0.0\nsamples = 2\nvalue = 0.474"] ;
1013 -> 1014 ;
1015 [label="mse = 0.0\nsamples = 1\nvalue = 0.471"] ;
1014 -> 1015 ;
1016 [label="mse = -0.0\nsamples = 1\nvalue = 0.487"] ;
1014 -> 1016 ;
1017 [label="mse = -0.0\nsamples = 1\nvalue = 0.511"] ;
1013 -> 1017 ;
1018 [label="mse = 0.0\nsamples = 1\nvalue = 0.36"] ;
1010 -> 1018 ;
1019 [label="X[2] <= 0.067\nmse = 0.009\nsamples = 3\nvalue = 0.514"] ;
1009 -> 1019 ;
1020 [label="mse = 0.0\nsamples = 1\nvalue = 0.607"] ;
1019 -> 1020 ;
1021 [label="X[3] <= 0.208\nmse = 0.0\nsamples = 2\nvalue = 0.422"] ;
1019 -> 1021 ;
1022 [label="mse = 0.0\nsamples = 1\nvalue = 0.402"] ;
1021 -> 1022 ;
1023 [label="mse = -0.0\nsamples = 1\nvalue = 0.442"] ;
1021 -> 1023 ;
1024 [label="mse = -0.0\nsamples = 1\nvalue = 0.615"] ;
1006 -> 1024 ;
1025 [label="X[4] <= 0.079\nmse = 0.021\nsamples = 10\nvalue = 0.672"] ;
983 -> 1025 ;
1026 [label="X[5] <= 0.024\nmse = 0.002\nsamples = 2\nvalue = 0.865"] ;
1025 -> 1026 ;
1027 [label="mse = 0.0\nsamples = 1\nvalue = 0.804"] ;
1026 -> 1027 ;
1028 [label="mse = 0.0\nsamples = 1\nvalue = 0.896"] ;
1026 -> 1028 ;
1029 [label="X[2] <= 0.054\nmse = 0.015\nsamples = 8\nvalue = 0.627"] ;
1025 -> 1029 ;
1030 [label="X[5] <= 0.029\nmse = 0.001\nsamples = 2\nvalue = 0.752"] ;
1029 -> 1030 ;
1031 [label="mse = 0.0\nsamples = 1\nvalue = 0.721"] ;
1030 -> 1031 ;
1032 [label="mse = 0.0\nsamples = 1\nvalue = 0.784"] ;
1030 -> 1032 ;
1033 [label="X[4] <= 0.087\nmse = 0.011\nsamples = 6\nvalue = 0.572"] ;
1029 -> 1033 ;
1034 [label="X[4] <= 0.08\nmse = 0.01\nsamples = 4\nvalue = 0.508"] ;
1033 -> 1034 ;
1035 [label="mse = 0.0\nsamples = 1\nvalue = 0.702"] ;
1034 -> 1035 ;
1036 [label="X[1] <= 0.089\nmse = 0.001\nsamples = 3\nvalue = 0.46"] ;
1034 -> 1036 ;
1037 [label="X[3] <= 0.259\nmse = 0.0\nsamples = 2\nvalue = 0.479"] ;
1036 -> 1037 ;
1038 [label="mse = 0.0\nsamples = 1\nvalue = 0.498"] ;
1037 -> 1038 ;
1039 [label="mse = 0.0\nsamples = 1\nvalue = 0.47"] ;
1037 -> 1039 ;
1040 [label="mse = -0.0\nsamples = 1\nvalue = 0.401"] ;
1036 -> 1040 ;
1041 [label="X[5] <= 0.03\nmse = 0.0\nsamples = 2\nvalue = 0.652"] ;
1033 -> 1041 ;
1042 [label="mse = 0.0\nsamples = 1\nvalue = 0.644"] ;
1041 -> 1042 ;
1043 [label="mse = 0.0\nsamples = 1\nvalue = 0.659"] ;
1041 -> 1043 ;
1044 [label="X[4] <= 0.114\nmse = 0.03\nsamples = 47\nvalue = 0.385"] ;
958 -> 1044 ;
1045 [label="X[0] <= 0.097\nmse = 0.025\nsamples = 33\nvalue = 0.337"] ;
1044 -> 1045 ;
1046 [label="X[1] <= 0.08\nmse = 0.015\nsamples = 2\nvalue = 0.554"] ;
1045 -> 1046 ;
1047 [label="mse = 0.0\nsamples = 1\nvalue = 0.677"] ;
1046 -> 1047 ;
1048 [label="mse = 0.0\nsamples = 1\nvalue = 0.432"] ;
1046 -> 1048 ;
1049 [label="X[0] <= 0.098\nmse = 0.022\nsamples = 31\nvalue = 0.321"] ;
1045 -> 1049 ;
1050 [label="X[4] <= 0.093\nmse = 0.01\nsamples = 5\nvalue = 0.192"] ;
1049 -> 1050 ;
1051 [label="X[2] <= 0.055\nmse = 0.016\nsamples = 2\nvalue = 0.265"] ;
1050 -> 1051 ;
1052 [label="mse = 0.0\nsamples = 1\nvalue = 0.177"] ;
1051 -> 1052 ;
1053 [label="mse = -0.0\nsamples = 1\nvalue = 0.442"] ;
1051 -> 1053 ;
1054 [label="X[4] <= 0.102\nmse = 0.001\nsamples = 3\nvalue = 0.148"] ;
1050 -> 1054 ;
1055 [label="X[1] <= 0.077\nmse = 0.0\nsamples = 2\nvalue = 0.125"] ;
1054 -> 1055 ;
1056 [label="mse = 0.0\nsamples = 1\nvalue = 0.112"] ;
1055 -> 1056 ;
1057 [label="mse = 0.0\nsamples = 1\nvalue = 0.132"] ;
1055 -> 1057 ;
1058 [label="mse = 0.0\nsamples = 1\nvalue = 0.183"] ;
1054 -> 1058 ;
1059 [label="X[3] <= 0.304\nmse = 0.021\nsamples = 26\nvalue = 0.343"] ;
1049 -> 1059 ;
1060 [label="X[5] <= 0.053\nmse = 0.018\nsamples = 25\nvalue = 0.335"] ;
1059 -> 1060 ;
1061 [label="X[5] <= 0.034\nmse = 0.017\nsamples = 23\nvalue = 0.351"] ;
1060 -> 1061 ;
1062 [label="mse = 0.0\nsamples = 1\nvalue = 0.173"] ;
1061 -> 1062 ;
1063 [label="X[5] <= 0.036\nmse = 0.016\nsamples = 22\nvalue = 0.36"] ;
1061 -> 1063 ;
1064 [label="mse = 0.0\nsamples = 1\nvalue = 0.558"] ;
1063 -> 1064 ;
1065 [label="X[5] <= 0.039\nmse = 0.015\nsamples = 21\nvalue = 0.349"] ;
1063 -> 1065 ;
1066 [label="X[5] <= 0.038\nmse = 0.007\nsamples = 3\nvalue = 0.25"] ;
1065 -> 1066 ;
1067 [label="X[5] <= 0.037\nmse = 0.0\nsamples = 2\nvalue = 0.306"] ;
1066 -> 1067 ;
1068 [label="mse = 0.0\nsamples = 1\nvalue = 0.287"] ;
1067 -> 1068 ;
1069 [label="mse = 0.0\nsamples = 1\nvalue = 0.326"] ;
1067 -> 1069 ;
1070 [label="mse = 0.0\nsamples = 1\nvalue = 0.138"] ;
1066 -> 1070 ;
1071 [label="X[1] <= 0.08\nmse = 0.014\nsamples = 18\nvalue = 0.369"] ;
1065 -> 1071 ;
1072 [label="X[4] <= 0.098\nmse = 0.007\nsamples = 11\nvalue = 0.318"] ;
1071 -> 1072 ;
1073 [label="X[0] <= 0.098\nmse = 0.0\nsamples = 2\nvalue = 0.406"] ;
1072 -> 1073 ;
1074 [label="mse = 0.0\nsamples = 1\nvalue = 0.401"] ;
1073 -> 1074 ;
1075 [label="mse = -0.0\nsamples = 1\nvalue = 0.417"] ;
1073 -> 1075 ;
1076 [label="X[1] <= 0.078\nmse = 0.006\nsamples = 9\nvalue = 0.3"] ;
1072 -> 1076 ;
1077 [label="X[3] <= 0.247\nmse = 0.003\nsamples = 4\nvalue = 0.26"] ;
1076 -> 1077 ;
1078 [label="X[5] <= 0.05\nmse = 0.0\nsamples = 2\nvalue = 0.296"] ;
1077 -> 1078 ;
1079 [label="mse = 0.0\nsamples = 1\nvalue = 0.279"] ;
1078 -> 1079 ;
1080 [label="mse = 0.0\nsamples = 1\nvalue = 0.312"] ;
1078 -> 1080 ;
1081 [label="X[3] <= 0.286\nmse = 0.0\nsamples = 2\nvalue = 0.19"] ;
1077 -> 1081 ;
1082 [label="mse = 0.0\nsamples = 1\nvalue = 0.173"] ;
1081 -> 1082 ;
1083 [label="mse = -0.0\nsamples = 1\nvalue = 0.206"] ;
1081 -> 1083 ;
1084 [label="X[0] <= 0.101\nmse = 0.006\nsamples = 5\nvalue = 0.326"] ;
1076 -> 1084 ;
1085 [label="X[2] <= 0.056\nmse = 0.004\nsamples = 3\nvalue = 0.383"] ;
1084 -> 1085 ;
1086 [label="mse = 0.0\nsamples = 1\nvalue = 0.338"] ;
1085 -> 1086 ;
1087 [label="X[2] <= 0.059\nmse = 0.001\nsamples = 2\nvalue = 0.451"] ;
1085 -> 1087 ;
1088 [label="mse = 0.0\nsamples = 1\nvalue = 0.484"] ;
1087 -> 1088 ;
1089 [label="mse = 0.0\nsamples = 1\nvalue = 0.418"] ;
1087 -> 1089 ;
1090 [label="X[3] <= 0.205\nmse = 0.001\nsamples = 2\nvalue = 0.255"] ;
1084 -> 1090 ;
1091 [label="mse = 0.0\nsamples = 1\nvalue = 0.231"] ;
1090 -> 1091 ;
1092 [label="mse = 0.0\nsamples = 1\nvalue = 0.279"] ;
1090 -> 1092 ;
1093 [label="X[4] <= 0.106\nmse = 0.016\nsamples = 7\nvalue = 0.446"] ;
1071 -> 1093 ;
1094 [label="X[1] <= 0.084\nmse = 0.003\nsamples = 4\nvalue = 0.367"] ;
1093 -> 1094 ;
1095 [label="mse = 0.0\nsamples = 1\nvalue = 0.281"] ;
1094 -> 1095 ;
1096 [label="X[4] <= 0.095\nmse = 0.001\nsamples = 3\nvalue = 0.396"] ;
1094 -> 1096 ;
1097 [label="mse = 0.0\nsamples = 1\nvalue = 0.437"] ;
1096 -> 1097 ;
1098 [label="X[3] <= 0.232\nmse = 0.0\nsamples = 2\nvalue = 0.376"] ;
1096 -> 1098 ;
1099 [label="mse = 0.0\nsamples = 1\nvalue = 0.366"] ;
1098 -> 1099 ;
1100 [label="mse = 0.0\nsamples = 1\nvalue = 0.385"] ;
1098 -> 1100 ;
1101 [label="X[3] <= 0.263\nmse = 0.006\nsamples = 3\nvalue = 0.604"] ;
1093 -> 1101 ;
1102 [label="X[4] <= 0.109\nmse = 0.0\nsamples = 2\nvalue = 0.561"] ;
1101 -> 1102 ;
1103 [label="mse = 0.0\nsamples = 1\nvalue = 0.586"] ;
1102 -> 1103 ;
1104 [label="mse = -0.0\nsamples = 1\nvalue = 0.548"] ;
1102 -> 1104 ;
1105 [label="mse = -0.0\nsamples = 1\nvalue = 0.732"] ;
1101 -> 1105 ;
1106 [label="X[0] <= 0.102\nmse = 0.004\nsamples = 2\nvalue = 0.206"] ;
1060 -> 1106 ;
1107 [label="mse = 0.0\nsamples = 1\nvalue = 0.258"] ;
1106 -> 1107 ;
1108 [label="mse = 0.0\nsamples = 1\nvalue = 0.127"] ;
1106 -> 1108 ;
1109 [label="mse = -0.0\nsamples = 1\nvalue = 0.72"] ;
1059 -> 1109 ;
1110 [label="X[3] <= 0.207\nmse = 0.025\nsamples = 14\nvalue = 0.484"] ;
1044 -> 1110 ;
1111 [label="X[3] <= 0.19\nmse = 0.005\nsamples = 3\nvalue = 0.252"] ;
1110 -> 1111 ;
1112 [label="mse = 0.0\nsamples = 1\nvalue = 0.367"] ;
1111 -> 1112 ;
1113 [label="X[1] <= 0.08\nmse = 0.001\nsamples = 2\nvalue = 0.213"] ;
1111 -> 1113 ;
1114 [label="mse = 0.0\nsamples = 1\nvalue = 0.251"] ;
1113 -> 1114 ;
1115 [label="mse = 0.0\nsamples = 1\nvalue = 0.194"] ;
1113 -> 1115 ;
1116 [label="X[1] <= 0.088\nmse = 0.018\nsamples = 11\nvalue = 0.523"] ;
1110 -> 1116 ;
1117 [label="X[0] <= 0.101\nmse = 0.015\nsamples = 10\nvalue = 0.482"] ;
1116 -> 1117 ;
1118 [label="X[1] <= 0.079\nmse = 0.011\nsamples = 4\nvalue = 0.41"] ;
1117 -> 1118 ;
1119 [label="X[3] <= 0.258\nmse = 0.0\nsamples = 2\nvalue = 0.49"] ;
1118 -> 1119 ;
1120 [label="mse = 0.0\nsamples = 1\nvalue = 0.473"] ;
1119 -> 1120 ;
1121 [label="mse = 0.0\nsamples = 1\nvalue = 0.501"] ;
1119 -> 1121 ;
1122 [label="X[1] <= 0.08\nmse = 0.001\nsamples = 2\nvalue = 0.278"] ;
1118 -> 1122 ;
1123 [label="mse = 0.0\nsamples = 1\nvalue = 0.331"] ;
1122 -> 1123 ;
1124 [label="mse = 0.0\nsamples = 1\nvalue = 0.252"] ;
1122 -> 1124 ;
1125 [label="X[3] <= 0.285\nmse = 0.011\nsamples = 6\nvalue = 0.534"] ;
1117 -> 1125 ;
1126 [label="X[4] <= 0.117\nmse = 0.006\nsamples = 5\nvalue = 0.557"] ;
1125 -> 1126 ;
1127 [label="mse = 0.0\nsamples = 1\nvalue = 0.659"] ;
1126 -> 1127 ;
1128 [label="X[5] <= 0.06\nmse = 0.004\nsamples = 4\nvalue = 0.531"] ;
1126 -> 1128 ;
1129 [label="X[1] <= 0.082\nmse = 0.001\nsamples = 3\nvalue = 0.486"] ;
1128 -> 1129 ;
1130 [label="X[3] <= 0.247\nmse = 0.0\nsamples = 2\nvalue = 0.458"] ;
1129 -> 1130 ;
1131 [label="mse = 0.0\nsamples = 1\nvalue = 0.458"] ;
1130 -> 1131 ;
1132 [label="mse = -0.0\nsamples = 1\nvalue = 0.457"] ;
1130 -> 1132 ;
1133 [label="mse = 0.0\nsamples = 1\nvalue = 0.529"] ;
1129 -> 1133 ;
1134 [label="mse = -0.0\nsamples = 1\nvalue = 0.606"] ;
1128 -> 1134 ;
1135 [label="mse = 0.0\nsamples = 1\nvalue = 0.306"] ;
1125 -> 1135 ;
1136 [label="mse = -0.0\nsamples = 1\nvalue = 0.678"] ;
1116 -> 1136 ;
1137 [label="X[4] <= 0.209\nmse = 0.023\nsamples = 43\nvalue = 0.204"] ;
957 -> 1137 ;
1138 [label="X[0] <= 0.094\nmse = 0.021\nsamples = 33\nvalue = 0.25"] ;
1137 -> 1138 ;
1139 [label="X[0] <= 0.093\nmse = 0.026\nsamples = 21\nvalue = 0.295"] ;
1138 -> 1139 ;
1140 [label="X[3] <= 0.361\nmse = 0.018\nsamples = 17\nvalue = 0.245"] ;
1139 -> 1140 ;
1141 [label="X[3] <= 0.33\nmse = 0.015\nsamples = 15\nvalue = 0.271"] ;
1140 -> 1141 ;
1142 [label="X[5] <= 0.091\nmse = 0.012\nsamples = 13\nvalue = 0.252"] ;
1141 -> 1142 ;
1143 [label="X[1] <= 0.074\nmse = 0.01\nsamples = 8\nvalue = 0.296"] ;
1142 -> 1143 ;
1144 [label="X[1] <= 0.072\nmse = 0.002\nsamples = 2\nvalue = 0.117"] ;
1143 -> 1144 ;
1145 [label="mse = 0.0\nsamples = 1\nvalue = 0.158"] ;
1144 -> 1145 ;
1146 [label="mse = 0.0\nsamples = 1\nvalue = 0.076"] ;
1144 -> 1146 ;
1147 [label="X[0] <= 0.091\nmse = 0.003\nsamples = 6\nvalue = 0.336"] ;
1143 -> 1147 ;
1148 [label="X[5] <= 0.078\nmse = 0.0\nsamples = 2\nvalue = 0.406"] ;
1147 -> 1148 ;
1149 [label="mse = 0.0\nsamples = 1\nvalue = 0.401"] ;
1148 -> 1149 ;
1150 [label="mse = -0.0\nsamples = 1\nvalue = 0.408"] ;
1148 -> 1150 ;
1151 [label="X[1] <= 0.076\nmse = 0.0\nsamples = 4\nvalue = 0.302"] ;
1147 -> 1151 ;
1152 [label="X[3] <= 0.312\nmse = 0.0\nsamples = 2\nvalue = 0.328"] ;
1151 -> 1152 ;
1153 [label="mse = 0.0\nsamples = 1\nvalue = 0.318"] ;
1152 -> 1153 ;
1154 [label="mse = -0.0\nsamples = 1\nvalue = 0.338"] ;
1152 -> 1154 ;
1155 [label="X[3] <= 0.308\nmse = 0.0\nsamples = 2\nvalue = 0.288"] ;
1151 -> 1155 ;
1156 [label="mse = 0.0\nsamples = 1\nvalue = 0.286"] ;
1155 -> 1156 ;
1157 [label="mse = 0.0\nsamples = 1\nvalue = 0.295"] ;
1155 -> 1157 ;
1158 [label="X[3] <= 0.319\nmse = 0.009\nsamples = 5\nvalue = 0.192"] ;
1142 -> 1158 ;
1159 [label="X[2] <= 0.055\nmse = 0.002\nsamples = 4\nvalue = 0.242"] ;
1158 -> 1159 ;
1160 [label="mse = 0.0\nsamples = 1\nvalue = 0.331"] ;
1159 -> 1160 ;
1161 [label="X[3] <= 0.312\nmse = 0.0\nsamples = 3\nvalue = 0.224"] ;
1159 -> 1161 ;
1162 [label="X[3] <= 0.308\nmse = 0.0\nsamples = 2\nvalue = 0.234"] ;
1161 -> 1162 ;
1163 [label="mse = 0.0\nsamples = 1\nvalue = 0.233"] ;
1162 -> 1163 ;
1164 [label="mse = -0.0\nsamples = 1\nvalue = 0.234"] ;
1162 -> 1164 ;
1165 [label="mse = -0.0\nsamples = 1\nvalue = 0.185"] ;
1161 -> 1165 ;
1166 [label="mse = -0.0\nsamples = 1\nvalue = 0.041"] ;
1158 -> 1166 ;
1167 [label="X[3] <= 0.344\nmse = 0.003\nsamples = 2\nvalue = 0.448"] ;
1141 -> 1167 ;
1168 [label="mse = 0.0\nsamples = 1\nvalue = 0.504"] ;
1167 -> 1168 ;
1169 [label="mse = 0.0\nsamples = 1\nvalue = 0.392"] ;
1167 -> 1169 ;
1170 [label="X[4] <= 0.2\nmse = 0.0\nsamples = 2\nvalue = 0.06"] ;
1140 -> 1170 ;
1171 [label="mse = 0.0\nsamples = 1\nvalue = 0.067"] ;
1170 -> 1171 ;
1172 [label="mse = 0.0\nsamples = 1\nvalue = 0.047"] ;
1170 -> 1172 ;
1173 [label="X[4] <= 0.174\nmse = 0.01\nsamples = 4\nvalue = 0.497"] ;
1139 -> 1173 ;
1174 [label="X[5] <= 0.083\nmse = 0.001\nsamples = 2\nvalue = 0.59"] ;
1173 -> 1174 ;
1175 [label="mse = 0.0\nsamples = 1\nvalue = 0.629"] ;
1174 -> 1175 ;
1176 [label="mse = -0.0\nsamples = 1\nvalue = 0.57"] ;
1174 -> 1176 ;
1177 [label="X[2] <= 0.058\nmse = 0.002\nsamples = 2\nvalue = 0.405"] ;
1173 -> 1177 ;
1178 [label="mse = 0.0\nsamples = 1\nvalue = 0.468"] ;
1177 -> 1178 ;
1179 [label="mse = 0.0\nsamples = 1\nvalue = 0.373"] ;
1177 -> 1179 ;
1180 [label="X[1] <= 0.082\nmse = 0.002\nsamples = 12\nvalue = 0.176"] ;
1138 -> 1180 ;
1181 [label="X[2] <= 0.064\nmse = 0.0\nsamples = 3\nvalue = 0.21"] ;
1180 -> 1181 ;
1182 [label="X[3] <= 0.299\nmse = 0.0\nsamples = 2\nvalue = 0.227"] ;
1181 -> 1182 ;
1183 [label="mse = 0.0\nsamples = 1\nvalue = 0.248"] ;
1182 -> 1183 ;
1184 [label="mse = 0.0\nsamples = 1\nvalue = 0.206"] ;
1182 -> 1184 ;
1185 [label="mse = 0.0\nsamples = 1\nvalue = 0.201"] ;
1181 -> 1185 ;
1186 [label="X[0] <= 0.104\nmse = 0.002\nsamples = 9\nvalue = 0.159"] ;
1180 -> 1186 ;
1187 [label="X[4] <= 0.125\nmse = 0.002\nsamples = 6\nvalue = 0.141"] ;
1186 -> 1187 ;
1188 [label="mse = 0.0\nsamples = 1\nvalue = 0.245"] ;
1187 -> 1188 ;
1189 [label="X[1] <= 0.084\nmse = 0.0\nsamples = 5\nvalue = 0.126"] ;
1187 -> 1189 ;
1190 [label="mse = 0.0\nsamples = 2\nvalue = 0.137"] ;
1189 -> 1190 ;
1191 [label="X[1] <= 0.086\nmse = 0.0\nsamples = 3\nvalue = 0.111"] ;
1189 -> 1191 ;
1192 [label="mse = 0.0\nsamples = 1\nvalue = 0.104"] ;
1191 -> 1192 ;
1193 [label="X[3] <= 0.271\nmse = 0.0\nsamples = 2\nvalue = 0.114"] ;
1191 -> 1193 ;
1194 [label="mse = 0.0\nsamples = 1\nvalue = 0.117"] ;
1193 -> 1194 ;
1195 [label="mse = 0.0\nsamples = 1\nvalue = 0.111"] ;
1193 -> 1195 ;
1196 [label="X[0] <= 0.109\nmse = 0.002\nsamples = 3\nvalue = 0.196"] ;
1186 -> 1196 ;
1197 [label="X[0] <= 0.106\nmse = 0.0\nsamples = 2\nvalue = 0.235"] ;
1196 -> 1197 ;
1198 [label="mse = 0.0\nsamples = 1\nvalue = 0.221"] ;
1197 -> 1198 ;
1199 [label="mse = 0.0\nsamples = 1\nvalue = 0.249"] ;
1197 -> 1199 ;
1200 [label="mse = 0.0\nsamples = 1\nvalue = 0.158"] ;
1196 -> 1200 ;
1201 [label="X[0] <= 0.093\nmse = 0.001\nsamples = 10\nvalue = 0.057"] ;
1137 -> 1201 ;
1202 [label="X[4] <= 0.214\nmse = 0.0\nsamples = 5\nvalue = 0.09"] ;
1201 -> 1202 ;
1203 [label="X[5] <= 0.096\nmse = 0.0\nsamples = 2\nvalue = 0.067"] ;
1202 -> 1203 ;
1204 [label="mse = 0.0\nsamples = 1\nvalue = 0.057"] ;
1203 -> 1204 ;
1205 [label="mse = -0.0\nsamples = 1\nvalue = 0.077"] ;
1203 -> 1205 ;
1206 [label="X[5] <= 0.102\nmse = 0.0\nsamples = 3\nvalue = 0.105"] ;
1202 -> 1206 ;
1207 [label="X[4] <= 0.215\nmse = 0.0\nsamples = 2\nvalue = 0.112"] ;
1206 -> 1207 ;
1208 [label="mse = 0.0\nsamples = 1\nvalue = 0.111"] ;
1207 -> 1208 ;
1209 [label="mse = 0.0\nsamples = 1\nvalue = 0.113"] ;
1207 -> 1209 ;
1210 [label="mse = 0.0\nsamples = 1\nvalue = 0.09"] ;
1206 -> 1210 ;
1211 [label="X[3] <= 0.345\nmse = 0.0\nsamples = 5\nvalue = 0.041"] ;
1201 -> 1211 ;
1212 [label="X[5] <= 0.114\nmse = 0.0\nsamples = 3\nvalue = 0.054"] ;
1211 -> 1212 ;
1213 [label="mse = 0.0\nsamples = 1\nvalue = 0.045"] ;
1212 -> 1213 ;
1214 [label="X[0] <= 0.096\nmse = 0.0\nsamples = 2\nvalue = 0.056"] ;
1212 -> 1214 ;
1215 [label="mse = 0.0\nsamples = 1\nvalue = 0.055"] ;
1214 -> 1215 ;
1216 [label="mse = -0.0\nsamples = 1\nvalue = 0.058"] ;
1214 -> 1216 ;
1217 [label="X[4] <= 0.236\nmse = 0.0\nsamples = 2\nvalue = 0.022"] ;
1211 -> 1217 ;
1218 [label="mse = 0.0\nsamples = 1\nvalue = 0.025"] ;
1217 -> 1218 ;
1219 [label="mse = 0.0\nsamples = 1\nvalue = 0.018"] ;
1217 -> 1219 ;
1220 [label="X[3] <= 0.175\nmse = 0.015\nsamples = 102\nvalue = 0.11"] ;
956 -> 1220 ;
1221 [label="X[4] <= 0.014\nmse = 0.008\nsamples = 60\nvalue = 0.056"] ;
1220 -> 1221 ;
1222 [label="X[5] <= 0.004\nmse = 0.0\nsamples = 22\nvalue = 0.001"] ;
1221 -> 1222 ;
1223 [label="mse = 0.0\nsamples = 21\nvalue = 0.0"] ;
1222 -> 1223 ;
1224 [label="mse = 0.0\nsamples = 1\nvalue = 0.034"] ;
1222 -> 1224 ;
1225 [label="X[2] <= 0.091\nmse = 0.009\nsamples = 38\nvalue = 0.085"] ;
1221 -> 1225 ;
1226 [label="X[2] <= 0.081\nmse = 0.009\nsamples = 16\nvalue = 0.153"] ;
1225 -> 1226 ;
1227 [label="mse = 0.0\nsamples = 1\nvalue = 0.442"] ;
1226 -> 1227 ;
1228 [label="X[5] <= 0.068\nmse = 0.006\nsamples = 15\nvalue = 0.142"] ;
1226 -> 1228 ;
1229 [label="X[2] <= 0.087\nmse = 0.005\nsamples = 14\nvalue = 0.154"] ;
1228 -> 1229 ;
1230 [label="X[1] <= 0.1\nmse = 0.0\nsamples = 6\nvalue = 0.119"] ;
1229 -> 1230 ;
1231 [label="X[4] <= 0.062\nmse = 0.0\nsamples = 2\nvalue = 0.152"] ;
1230 -> 1231 ;
1232 [label="mse = 0.0\nsamples = 1\nvalue = 0.157"] ;
1231 -> 1232 ;
1233 [label="mse = -0.0\nsamples = 1\nvalue = 0.147"] ;
1231 -> 1233 ;
1234 [label="X[2] <= 0.087\nmse = 0.0\nsamples = 4\nvalue = 0.112"] ;
1230 -> 1234 ;
1235 [label="X[4] <= 0.019\nmse = 0.0\nsamples = 3\nvalue = 0.107"] ;
1234 -> 1235 ;
1236 [label="mse = 0.0\nsamples = 1\nvalue = 0.102"] ;
1235 -> 1236 ;
1237 [label="X[1] <= 0.102\nmse = 0.0\nsamples = 2\nvalue = 0.108"] ;
1235 -> 1237 ;
1238 [label="mse = 0.0\nsamples = 1\nvalue = 0.11"] ;
1237 -> 1238 ;
1239 [label="mse = -0.0\nsamples = 1\nvalue = 0.107"] ;
1237 -> 1239 ;
1240 [label="mse = 0.0\nsamples = 1\nvalue = 0.129"] ;
1234 -> 1240 ;
1241 [label="X[1] <= 0.104\nmse = 0.006\nsamples = 8\nvalue = 0.181"] ;
1229 -> 1241 ;
1242 [label="X[5] <= 0.03\nmse = 0.009\nsamples = 3\nvalue = 0.26"] ;
1241 -> 1242 ;
1243 [label="mse = 0.0\nsamples = 1\nvalue = 0.354"] ;
1242 -> 1243 ;
1244 [label="X[4] <= 0.102\nmse = 0.001\nsamples = 2\nvalue = 0.166"] ;
1242 -> 1244 ;
1245 [label="mse = 0.0\nsamples = 1\nvalue = 0.14"] ;
1244 -> 1245 ;
1246 [label="mse = 0.0\nsamples = 1\nvalue = 0.193"] ;
1244 -> 1246 ;
1247 [label="X[1] <= 0.105\nmse = 0.002\nsamples = 5\nvalue = 0.149"] ;
1241 -> 1247 ;
1248 [label="X[3] <= 0.154\nmse = 0.001\nsamples = 4\nvalue = 0.132"] ;
1247 -> 1248 ;
1249 [label="X[3] <= 0.115\nmse = 0.001\nsamples = 2\nvalue = 0.147"] ;
1248 -> 1249 ;
1250 [label="mse = 0.0\nsamples = 1\nvalue = 0.113"] ;
1249 -> 1250 ;
1251 [label="mse = 0.0\nsamples = 1\nvalue = 0.169"] ;
1249 -> 1251 ;
1252 [label="X[0] <= 0.114\nmse = 0.0\nsamples = 2\nvalue = 0.108"] ;
1248 -> 1252 ;
1253 [label="mse = 0.0\nsamples = 1\nvalue = 0.103"] ;
1252 -> 1253 ;
1254 [label="mse = -0.0\nsamples = 1\nvalue = 0.11"] ;
1252 -> 1254 ;
1255 [label="mse = 0.0\nsamples = 1\nvalue = 0.217"] ;
1247 -> 1255 ;
1256 [label="mse = 0.0\nsamples = 1\nvalue = 0.0"] ;
1228 -> 1256 ;
1257 [label="X[3] <= 0.156\nmse = 0.004\nsamples = 22\nvalue = 0.034"] ;
1225 -> 1257 ;
1258 [label="X[4] <= 0.017\nmse = 0.0\nsamples = 13\nvalue = 0.001"] ;
1257 -> 1258 ;
1259 [label="mse = 0.0\nsamples = 1\nvalue = 0.008"] ;
1258 -> 1259 ;
1260 [label="mse = 0.0\nsamples = 12\nvalue = 0.0"] ;
1258 -> 1260 ;
1261 [label="X[4] <= 0.106\nmse = 0.005\nsamples = 9\nvalue = 0.069"] ;
1257 -> 1261 ;
1262 [label="X[2] <= 0.104\nmse = 0.0\nsamples = 2\nvalue = 0.138"] ;
1261 -> 1262 ;
1263 [label="mse = 0.0\nsamples = 1\nvalue = 0.154"] ;
1262 -> 1263 ;
1264 [label="mse = 0.0\nsamples = 1\nvalue = 0.116"] ;
1262 -> 1264 ;
1265 [label="X[1] <= 0.109\nmse = 0.003\nsamples = 7\nvalue = 0.026"] ;
1261 -> 1265 ;
1266 [label="X[4] <= 0.134\nmse = 0.006\nsamples = 3\nvalue = 0.071"] ;
1265 -> 1266 ;
1267 [label="X[4] <= 0.11\nmse = 0.001\nsamples = 2\nvalue = 0.142"] ;
1266 -> 1267 ;
1268 [label="mse = 0.0\nsamples = 1\nvalue = 0.174"] ;
1267 -> 1268 ;
1269 [label="mse = 0.0\nsamples = 1\nvalue = 0.111"] ;
1267 -> 1269 ;
1270 [label="mse = 0.0\nsamples = 1\nvalue = 0.0"] ;
1266 -> 1270 ;
1271 [label="mse = 0.0\nsamples = 4\nvalue = 0.0"] ;
1265 -> 1271 ;
1272 [label="X[5] <= 0.123\nmse = 0.015\nsamples = 42\nvalue = 0.198"] ;
1220 -> 1272 ;
1273 [label="X[0] <= 0.113\nmse = 0.014\nsamples = 33\nvalue = 0.225"] ;
1272 -> 1273 ;
1274 [label="X[4] <= 0.111\nmse = 0.009\nsamples = 21\nvalue = 0.275"] ;
1273 -> 1274 ;
1275 [label="X[0] <= 0.109\nmse = 0.009\nsamples = 14\nvalue = 0.32"] ;
1274 -> 1275 ;
1276 [label="X[2] <= 0.079\nmse = 0.004\nsamples = 6\nvalue = 0.267"] ;
1275 -> 1276 ;
1277 [label="mse = 0.0\nsamples = 1\nvalue = 0.116"] ;
1276 -> 1277 ;
1278 [label="X[5] <= 0.038\nmse = 0.001\nsamples = 5\nvalue = 0.286"] ;
1276 -> 1278 ;
1279 [label="X[2] <= 0.082\nmse = 0.0\nsamples = 2\nvalue = 0.238"] ;
1278 -> 1279 ;
1280 [label="mse = 0.0\nsamples = 1\nvalue = 0.244"] ;
1279 -> 1280 ;
1281 [label="mse = 0.0\nsamples = 1\nvalue = 0.231"] ;
1279 -> 1281 ;
1282 [label="X[1] <= 0.093\nmse = 0.0\nsamples = 3\nvalue = 0.302"] ;
1278 -> 1282 ;
1283 [label="mse = -0.0\nsamples = 1\nvalue = 0.288"] ;
1282 -> 1283 ;
1284 [label="X[1] <= 0.094\nmse = 0.0\nsamples = 2\nvalue = 0.316"] ;
1282 -> 1284 ;
1285 [label="mse = 0.0\nsamples = 1\nvalue = 0.32"] ;
1284 -> 1285 ;
1286 [label="mse = 0.0\nsamples = 1\nvalue = 0.308"] ;
1284 -> 1286 ;
1287 [label="X[1] <= 0.104\nmse = 0.01\nsamples = 8\nvalue = 0.368"] ;
1275 -> 1287 ;
1288 [label="X[0] <= 0.111\nmse = 0.004\nsamples = 7\nvalue = 0.409"] ;
1287 -> 1288 ;
1289 [label="X[5] <= 0.025\nmse = 0.002\nsamples = 3\nvalue = 0.374"] ;
1288 -> 1289 ;
1290 [label="mse = 0.0\nsamples = 1\nvalue = 0.442"] ;
1289 -> 1290 ;
1291 [label="X[4] <= 0.095\nmse = 0.0\nsamples = 2\nvalue = 0.352"] ;
1289 -> 1291 ;
1292 [label="mse = 0.0\nsamples = 1\nvalue = 0.355"] ;
1291 -> 1292 ;
1293 [label="mse = -0.0\nsamples = 1\nvalue = 0.35"] ;
1291 -> 1293 ;
1294 [label="X[3] <= 0.219\nmse = 0.003\nsamples = 4\nvalue = 0.444"] ;
1288 -> 1294 ;
1295 [label="X[0] <= 0.112\nmse = 0.0\nsamples = 2\nvalue = 0.391"] ;
1294 -> 1295 ;
1296 [label="mse = 0.0\nsamples = 1\nvalue = 0.374"] ;
1295 -> 1296 ;
1297 [label="mse = -0.0\nsamples = 1\nvalue = 0.408"] ;
1295 -> 1297 ;
1298 [label="X[5] <= 0.031\nmse = 0.0\nsamples = 2\nvalue = 0.498"] ;
1294 -> 1298 ;
1299 [label="mse = 0.0\nsamples = 1\nvalue = 0.482"] ;
1298 -> 1299 ;
1300 [label="mse = 0.0\nsamples = 1\nvalue = 0.513"] ;
1298 -> 1300 ;
1301 [label="mse = -0.0\nsamples = 1\nvalue = 0.205"] ;
1287 -> 1301 ;
1302 [label="X[2] <= 0.085\nmse = 0.002\nsamples = 7\nvalue = 0.208"] ;
1274 -> 1302 ;
1303 [label="X[1] <= 0.091\nmse = 0.001\nsamples = 5\nvalue = 0.181"] ;
1302 -> 1303 ;
1304 [label="mse = 0.0\nsamples = 1\nvalue = 0.224"] ;
1303 -> 1304 ;
1305 [label="X[0] <= 0.109\nmse = 0.0\nsamples = 4\nvalue = 0.169"] ;
1303 -> 1305 ;
1306 [label="mse = 0.0\nsamples = 1\nvalue = 0.137"] ;
1305 -> 1306 ;
1307 [label="X[2] <= 0.083\nmse = 0.0\nsamples = 3\nvalue = 0.174"] ;
1305 -> 1307 ;
1308 [label="X[1] <= 0.097\nmse = 0.0\nsamples = 2\nvalue = 0.172"] ;
1307 -> 1308 ;
1309 [label="mse = 0.0\nsamples = 1\nvalue = 0.173"] ;
1308 -> 1309 ;
1310 [label="mse = -0.0\nsamples = 1\nvalue = 0.171"] ;
1308 -> 1310 ;
1311 [label="mse = -0.0\nsamples = 1\nvalue = 0.185"] ;
1307 -> 1311 ;
1312 [label="X[0] <= 0.106\nmse = 0.0\nsamples = 2\nvalue = 0.269"] ;
1302 -> 1312 ;
1313 [label="mse = 0.0\nsamples = 1\nvalue = 0.24"] ;
1312 -> 1313 ;
1314 [label="mse = 0.0\nsamples = 1\nvalue = 0.279"] ;
1312 -> 1314 ;
1315 [label="X[0] <= 0.125\nmse = 0.01\nsamples = 12\nvalue = 0.137"] ;
1273 -> 1315 ;
1316 [label="X[5] <= 0.035\nmse = 0.008\nsamples = 11\nvalue = 0.154"] ;
1315 -> 1316 ;
1317 [label="X[3] <= 0.201\nmse = 0.006\nsamples = 7\nvalue = 0.192"] ;
1316 -> 1317 ;
1318 [label="X[3] <= 0.192\nmse = 0.0\nsamples = 3\nvalue = 0.13"] ;
1317 -> 1318 ;
